{"learner":{"attributes":{"scikit_learn":"{\"_estimator_type\": \"classifier\"}"},"feature_names":[],"feature_types":[],"gradient_booster":{"model":{"cats":{"enc":[],"feature_segments":[],"sorted_idx":[]},"gbtree_model_param":{"num_parallel_tree":"1","num_trees":"100"},"iteration_indptr":[0,1,2,3,4,5,6,7,8,9,10,11,12,13,14,15,16,17,18,19,20,21,22,23,24,25,26,27,28,29,30,31,32,33,34,35,36,37,38,39,40,41,42,43,44,45,46,47,48,49,50,51,52,53,54,55,56,57,58,59,60,61,62,63,64,65,66,67,68,69,70,71,72,73,74,75,76,77,78,79,80,81,82,83,84,85,86,87,88,89,90,91,92,93,94,95,96,97,98,99,100],"tree_info":[0,0,0,0,0,0,0,0,0,0,0,0,0,0,0,0,0,0,0,0,0,0,0,0,0,0,0,0,0,0,0,0,0,0,0,0,0,0,0,0,0,0,0,0,0,0,0,0,0,0,0,0,0,0,0,0,0,0,0,0,0,0,0,0,0,0,0,0,0,0,0,0,0,0,0,0,0,0,0,0,0,0,0,0,0,0,0,0,0,0,0,0,0,0,0,0,0,0,0,0],"trees":[{"base_weights":[-4.237875E-8,1.2549428E0,-1.9868205E-1,1.8701695E0,2.9303667E-1,1.9237934E0,-1.3333334E-1,-1.0246043E0,7.7347654E-1,1.9371162E-1,2.0108467E-2,1.6255645E-1,-1.6368512E0,-6.7094195E-1,1.5619577E0,-6.856004E-2,-1.7386048E-1,-1.7333333E-1,-2.1528529E-2,1.6358185E-1,-2.029973E-2],"categories":[],"categories_nodes":[],"categories_segments":[],"categories_sizes":[],"default_left":[0,0,0,0,0,0,0,0,0,0,0,0,0,0,0,0,0,0,0,0,0],"id":0,"left_children":[1,3,-1,5,7,9,-1,11,13,-1,-1,-1,15,17,19,-1,-1,-1,-1,-1,-1],"loss_changes":[9.773916E2,1.4162958E2,0E0,2.7704742E1,6.0872097E1,2.9234009E0,0E0,4.4504128E1,8.090387E1,0E0,0E0,0E0,8.8394165E-1,1.1951264E1,6.28405E0,0E0,0E0,0E0,0E0,0E0,0E0],"parents":[2147483647,0,0,1,1,3,3,4,4,5,5,7,7,8,8,12,12,13,13,14,14],"right_children":[2,4,-1,6,8,10,-1,12,14,-1,-1,-1,16,18,20,-1,-1,-1,-1,-1,-1],"split_conditions":[4.3028546E2,1E0,-1.9868205E-1,1.2133908E0,7.4257427E-3,1.06E2,-1.3333334E-1,1.8217777E-5,9.34212E1,1.9371162E-1,2.0108467E-2,1.6255645E-1,4E0,9.8864335E-1,6.1904764E-1,-6.856004E-2,-1.7386048E-1,-1.7333333E-1,-2.1528529E-2,1.6358185E-1,-2.029973E-2],"split_indices":[6,9,0,7,2,4,0,1,6,0,0,0,9,5,12,0,0,0,0,0,0],"split_type":[0,0,0,0,0,0,0,0,0,0,0,0,0,0,0,0,0,0,0,0,0],"sum_hessian":[3.9E2,2.3924998E2,1.5075E2,1.4534462E2,9.390538E1,1.4334462E2,2E0,2.4788498E1,6.911688E1,1.4212105E2,1.2235621E0,4.3413725E0,2.0447124E1,2.4459183E1,4.46577E1,2.7235622E0,1.7723562E1,6.5E0,1.7959183E1,4.2934135E1,1.7235621E0],"tree_param":{"num_deleted":"0","num_feature":"13","num_nodes":"21","size_leaf_vector":"1"}},{"base_weights":[-6.600112E-4,1.1383168E0,-1.8077005E-1,1.6997795E0,2.6381165E-1,1.7495506E0,-1.2482635E-1,-9.314438E-1,6.9893277E-1,1.7616662E-1,1.900305E-2,1.5017597E-1,-1.4943416E0,-6.6340935E-1,1.3910555E0,-6.3601896E-2,-1.5857296E-1,-1.3837143E-2,-1.4642747E-1,3.9595988E-2,1.5340601E-1],"categories":[],"categories_nodes":[],"categories_segments":[],"categories_sizes":[],"default_left":[0,0,0,0,0,0,0,0,0,0,0,0,0,0,0,0,0,0,0,0,0],"id":1,"left_children":[1,3,-1,5,7,9,-1,11,13,-1,-1,-1,15,17,19,-1,-1,-1,-1,-1,-1],"loss_changes":[7.999847E2,1.16613495E2,0E0,2.3460876E1,4.9748512E1,2.3674927E0,0E0,3.733921E1,6.671905E1,0E0,0E0,0E0,6.6306686E-1,9.96685E0,6.0231934E0,0E0,0E0,0E0,0E0,0E0,0E0],"parents":[2147483647,0,0,1,1,3,3,4,4,5,5,7,7,8,8,12,12,13,13,14,14],"right_children":[2,4,-1,6,8,10,-1,12,14,-1,-1,-1,16,18,20,-1,-1,-1,-1,-1,-1],"split_conditions":[4.3028546E2,1E0,-1.8077005E-1,1.2133908E0,7.4257427E-3,1.06E2,-1.2482635E-1,1.8217777E-5,7.038916E1,1.7616662E-1,1.900305E-2,1.5017597E-1,4E0,6.920212E1,4.0418053E0,-6.3601896E-2,-1.5857296E-1,-1.3837143E-2,-1.4642747E-1,3.9595988E-2,1.5340601E-1],"split_indices":[6,9,0,7,2,4,0,1,6,0,0,0,9,6,5,0,0,0,0,0,0],"split_type":[0,0,0,0,0,0,0,0,0,0,0,0,0,0,0,0,0,0,0,0,0],"sum_hessian":[3.8668628E2,2.3741426E2,1.4927203E2,1.4401067E2,9.340358E1,1.4201953E2,1.9911375E0,2.4623482E1,6.87801E1,1.407961E2,1.2234385E0,4.3128185E0,2.0310663E1,2.3185104E1,4.5594997E1,2.7203639E0,1.75903E1,1.4712523E1,8.472581E0,6.2026668E0,3.939233E1],"tree_param":{"num_deleted":"0","num_feature":"13","num_nodes":"21","size_leaf_vector":"1"}},{"base_weights":[-1.0416782E-3,1.0463619E0,-1.672736E-1,1.569512E0,2.403927E-1,1.6166052E0,-1.1750853E-1,-8.563264E-1,6.373589E-1,1.6280094E0,1.796032E-2,1.4008234E-1,-1.3795658E0,-3.9587274E-1,1.4102881E0,5.1614393E-2,1.6347131E-1,-5.909544E-2,-1.4643954E-1,-1.5835409E-1,-8.805326E-4,1.6462757E-1,3.8502295E-2],"categories":[],"categories_nodes":[],"categories_segments":[],"categories_sizes":[],"default_left":[0,0,0,0,0,0,0,0,0,0,0,0,0,0,0,0,0,0,0,0,0,0,0],"id":2,"left_children":[1,3,-1,5,7,9,-1,11,13,15,-1,-1,17,19,21,-1,-1,-1,-1,-1,-1,-1,-1],"loss_changes":[6.656951E2,9.817857E1,0E0,2.019638E1,4.111417E1,1.9952087E0,0E0,3.1684336E1,5.5656372E1,1.8759155E-1,0E0,0E0,5.364113E-1,1.3917633E1,8.968338E0,0E0,0E0,0E0,0E0,0E0,0E0,0E0,0E0],"parents":[2147483647,0,0,1,1,3,3,4,4,5,5,7,7,8,8,9,9,12,12,13,13,14,14],"right_children":[2,4,-1,6,8,10,-1,12,14,16,-1,-1,18,20,22,-1,-1,-1,-1,-1,-1,-1,-1],"split_conditions":[4.3028546E2,1E0,-1.672736E-1,1.2133908E0,7.4257427E-3,1.06E2,-1.1750853E-1,1.8217777E-5,4.0418053E0,4.98119E0,1.796032E-2,1.4008234E-1,4E0,9.8864335E-1,4.2178073E0,5.1614393E-2,1.6347131E-1,-5.909544E-2,-1.4643954E-1,-1.5835409E-1,-8.805326E-4,1.6462757E-1,3.8502295E-2],"split_indices":[6,9,0,7,2,4,0,1,5,5,0,0,9,5,5,0,0,0,0,0,0,0,0],"split_type":[0,0,0,0,0,0,0,0,0,0,0,0,0,0,0,0,0,0,0,0,0,0,0],"sum_hessian":[3.781937E2,2.3274246E2,1.4545122E2,1.4055902E2,9.218344E1,1.3859198E2,1.9670434E0,2.419141E1,6.7992035E1,1.3736888E2,1.2230943E0,4.236931E0,1.995448E1,2.93053E1,3.8686733E1,1.2906927E0,1.360782E2,2.7117038E0,1.7242775E1,6.443402E0,2.2861898E1,3.0955853E1,7.730882E0],"tree_param":{"num_deleted":"0","num_feature":"13","num_nodes":"23","size_leaf_vector":"1"}},{"base_weights":[-1.2152222E-3,9.716622E-1,-1.5676463E-1,1.4667664E0,2.2076471E-1,1.5119662E0,-1.1113292E-1,-7.9396594E-1,5.850687E-1,1.5229856E0,1.697642E-2,1.3167246E-1,-1.2843766E0,-5.661704E-1,1.1876396E0,1.5299474E-1,4.3430965E-2,-5.497871E-2,-1.3651161E-1,-6.1186436E-3,-1.3412301E-1,1.3506304E-1,3.530356E-2],"categories":[],"categories_nodes":[],"categories_segments":[],"categories_sizes":[],"default_left":[0,0,0,0,0,0,0,0,0,0,0,0,0,0,0,0,0,0,0,0,0,0,0],"id":3,"left_children":[1,3,-1,5,7,9,-1,11,13,15,-1,-1,17,19,21,-1,-1,-1,-1,-1,-1,-1,-1],"loss_changes":[5.609424E2,8.40919E1,0E0,1.7605408E1,3.4252995E1,1.7341614E0,0E0,2.7123823E1,4.7727325E1,3.4735107E-1,0E0,0E0,4.6200943E-1,9.304549E0,5.6241074E0,0E0,0E0,0E0,0E0,0E0,0E0,0E0,0E0],"parents":[2147483647,0,0,1,1,3,3,4,4,5,5,7,7,8,8,9,9,12,12,13,13,14,14],"right_children":[2,4,-1,6,8,10,-1,12,14,16,-1,-1,18,20,22,-1,-1,-1,-1,-1,-1,-1,-1],"split_conditions":[4.3028546E2,1E0,-1.5676463E-1,1.2133908E0,7.4257427E-3,1.06E2,-1.1113292E-1,1.8217777E-5,7.038916E1,1.2073501E0,1.697642E-2,1.3167246E-1,4E0,6.920212E1,4.2178073E0,1.5299474E-1,4.3430965E-2,-5.497871E-2,-1.3651161E-1,-6.1186436E-3,-1.3412301E-1,1.3506304E-1,3.530356E-2],"split_indices":[6,9,0,7,2,4,0,1,6,7,0,0,9,6,5,0,0,0,0,0,0,0,0],"split_type":[0,0,0,0,0,0,0,0,0,0,0,0,0,0,0,0,0,0,0,0,0,0,0],"sum_hessian":[3.660861E2,2.2606288E2,1.4002321E2,1.3566129E2,9.0401596E1,1.3373021E2,1.9310638E0,2.3570112E1,6.683148E1,1.3250764E2,1.2225664E0,4.1262226E0,1.944389E1,2.2982597E1,4.384889E1,1.3126294E2,1.244707E0,2.6988068E0,1.6745083E1,1.4569138E1,8.413461E0,3.616742E1,7.681466E0],"tree_param":{"num_deleted":"0","num_feature":"13","num_nodes":"23","size_leaf_vector":"1"}},{"base_weights":[-1.462034E-3,9.086115E-1,-1.483744E-1,1.3832381E0,2.0338103E-1,1.4270953E0,-1.05514124E-1,-7.4091375E-1,5.385482E-1,1.4379584E0,1.6047759E-2,1.2453344E-1,-1.203469E0,-3.535222E-1,1.2356195E0,1.4446619E-1,4.1304212E-2,-5.12018E-2,-1.2817919E-1,-1.4702709E-1,6.3511875E-4,1.4573707E-1,3.237577E-2],"categories":[],"categories_nodes":[],"categories_segments":[],"categories_sizes":[],"default_left":[0,0,0,0,0,0,0,0,0,0,0,0,0,0,0,0,0,0,0,0,0,0,0],"id":4,"left_children":[1,3,-1,5,7,9,-1,11,13,15,-1,-1,17,19,21,-1,-1,-1,-1,-1,-1,-1,-1],"loss_changes":[4.770842E2,7.306491E1,0E0,1.5494156E1,2.8668936E1,1.5430908E0,0E0,2.338288E1,4.179014E1,2.8060913E-1,0E0,0E0,4.1755676E-1,1.2045227E1,7.121727E0,0E0,0E0,0E0,0E0,0E0,0E0,0E0,0E0],"parents":[2147483647,0,0,1,1,3,3,4,4,5,5,7,7,8,8,9,9,12,12,13,13,14,14],"right_children":[2,4,-1,6,8,10,-1,12,14,16,-1,-1,18,20,22,-1,-1,-1,-1,-1,-1,-1,-1],"split_conditions":[4.3028546E2,1E0,-1.483744E-1,1.2133908E0,7.4257427E-3,1.06E2,-1.05514124E-1,1.8217777E-5,4.0418053E0,1.2073501E0,1.6047759E-2,1.2453344E-1,4E0,9.8864335E-1,4.2178073E0,1.4446619E-1,4.1304212E-2,-5.12018E-2,-1.2817919E-1,-1.4702709E-1,6.3511875E-4,1.4573707E-1,3.237577E-2],"split_indices":[6,9,0,7,2,4,0,1,5,7,0,0,9,5,5,0,0,0,0,0,0,0,0],"split_type":[0,0,0,0,0,0,0,0,0,0,0,0,0,0,0,0,0,0,0,0,0,0,0],"sum_hessian":[3.5166208E2,2.1812645E2,1.3353563E2,1.2980505E2,8.8321396E1,1.27919014E2,1.8860399E0,2.2819504E1,6.550189E1,1.2669713E2,1.2218864E0,3.990725E0,1.8828777E1,2.8948357E1,3.655354E1,1.25466965E2,1.2301638E0,2.6826918E0,1.6146086E1,6.3031335E0,2.2645224E1,2.8921925E1,7.631614E0],"tree_param":{"num_deleted":"0","num_feature":"13","num_nodes":"23","size_leaf_vector":"1"}},{"base_weights":[-1.6569311E-3,8.630727E-1,-1.4022937E0,1.3132802E0,2.0538288E-1,-1.6519636E-2,-1.4154206E-1,1.3564099E0,-1.0051085E-1,-6.639846E-1,4.9839574E-1,1.3673416E0,1.5171006E-2,1.18373476E-1,-1.1168803E0,-3.2557604E-1,1.162921E0,3.4455035E-2,1.3745286E-1,-1.3391551E-1,-6.99676E-2,-1.3813369E-1,5.742895E-4,1.3823883E-1,2.969249E-2],"categories":[],"categories_nodes":[],"categories_segments":[],"categories_sizes":[],"default_left":[0,0,0,0,0,0,0,0,0,0,0,0,0,0,0,0,0,0,0,0,0,0,0,0,0],"id":5,"left_children":[1,3,5,7,9,-1,-1,11,-1,13,15,17,-1,-1,19,21,23,-1,-1,-1,-1,-1,-1,-1,-1],"loss_changes":[4.089437E2,6.154344E1,1.8591461E0,1.3736481E1,2.2242672E1,0E0,0E0,1.3980408E0,0E0,1.9826002E1,3.5917595E1,4.1352844E-1,0E0,0E0,7.5761604E-1,1.0416978E1,6.4597015E0,0E0,0E0,0E0,0E0,0E0,0E0,0E0,0E0],"parents":[2147483647,0,0,1,1,2,2,3,3,4,4,7,7,9,9,10,10,11,11,14,14,15,15,16,16],"right_children":[2,4,6,8,10,-1,-1,12,-1,14,16,18,-1,-1,20,22,24,-1,-1,-1,-1,-1,-1,-1,-1],"split_conditions":[3.6587033E2,1E0,4.3028546E2,1.2133908E0,7.4257427E-3,-1.6519636E-2,-1.4154206E-1,1.06E2,-1.0051085E-1,1.8217777E-5,4.0418053E0,4.98119E0,1.5171006E-2,1.18373476E-1,5.0251256E-3,9.8864335E-1,4.2178073E0,3.4455035E-2,1.3745286E-1,-1.3391551E-1,-6.99676E-2,-1.3813369E-1,5.742895E-4,1.3823883E-1,2.969249E-2],"split_indices":[6,9,6,7,2,0,0,4,0,1,5,5,0,0,12,5,5,0,0,0,0,0,0,0,0],"split_type":[0,0,0,0,0,0,0,0,0,0,0,0,0,0,0,0,0,0,0,0,0,0,0,0,0],"sum_hessian":[3.3564365E2,2.0775993E2,1.278837E2,1.22742424E2,8.501752E1,1.4853635E0,1.2639833E2,1.2090807E2,1.8343512E0,2.1112068E1,6.390545E1,1.1968699E2,1.2210824E0,3.8384192E0,1.727365E1,2.8757687E1,3.5147762E1,1.1766315E0,1.1851036E2,9.827827E0,7.4458213E0,6.1120844E0,2.2645601E1,2.756558E1,7.5821805E0],"tree_param":{"num_deleted":"0","num_feature":"13","num_nodes":"25","size_leaf_vector":"1"}},{"base_weights":[-2.0213935E-3,8.07591E-1,-1.3588859E-1,1.2554874E0,1.7339993E-1,1.2977785E0,-9.601398E-2,-6.5859425E-1,4.6263987E-1,1.3088145E0,1.4343089E-2,1.1298066E-1,-1.0750735E0,-3.0046362E-1,1.0996495E0,1.31598E-1,3.2716792E-2,-4.3023344E-2,-1.15501516E-1,-1.3068461E-1,5.1928137E-4,1.3194868E-1,2.7231002E-2],"categories":[],"categories_nodes":[],"categories_segments":[],"categories_sizes":[],"default_left":[0,0,0,0,0,0,0,0,0,0,0,0,0,0,0,0,0,0,0,0,0,0,0],"id":6,"left_children":[1,3,-1,5,7,9,-1,11,13,15,-1,-1,17,19,21,-1,-1,-1,-1,-1,-1,-1,-1],"loss_changes":[3.525137E2,5.687047E1,0E0,1.2268021E1,2.0602884E1,1.288147E0,0E0,1.7728817E1,3.104105E1,3.7576294E-1,0E0,0E0,4.5653915E-1,9.090147E0,5.942463E0,0E0,0E0,0E0,0E0,0E0,0E0,0E0,0E0],"parents":[2147483647,0,0,1,1,3,3,4,4,5,5,7,7,8,8,9,9,12,12,13,13,14,14],"right_children":[2,4,-1,6,8,10,-1,12,14,16,-1,-1,18,20,22,-1,-1,-1,-1,-1,-1,-1,-1],"split_conditions":[4.3028546E2,1E0,-1.3588859E-1,1.2133908E0,7.4257427E-3,1.06E2,-9.601398E-2,1.8217777E-5,4.0418053E0,1.2073501E0,1.4343089E-2,1.1298066E-1,4E0,9.8864335E-1,4.2178073E0,1.31598E-1,3.2716792E-2,-4.3023344E-2,-1.15501516E-1,-1.3068461E-1,5.1928137E-4,1.3194868E-1,2.7231002E-2],"split_indices":[6,9,0,7,2,4,0,1,5,7,0,0,9,5,5,0,0,0,0,0,0,0,0],"split_type":[0,0,0,0,0,0,0,0,0,0,0,0,0,0,0,0,0,0,0,0,0,0,0],"sum_hessian":[3.188956E2,1.9997786E2,1.18917755E2,1.1662908E2,8.334878E1,1.1485111E2,1.777968E0,2.1171707E1,6.2177067E1,1.13630936E2,1.2201788E0,3.6755962E0,1.749611E1,2.852908E1,3.3647987E1,1.1246939E2,1.1615433E0,2.6336799E0,1.4862432E1,5.8831387E0,2.264594E1,2.6114183E1,7.5338035E0],"tree_param":{"num_deleted":"0","num_feature":"13","num_nodes":"23","size_leaf_vector":"1"}},{"base_weights":[-2.221153E-3,7.661022E-1,-1.3114801E-1,1.2048227E0,1.616303E-1,1.2467345E0,-9.193817E-2,-6.215106E-1,4.3036586E-1,1.2580414E0,1.3561127E-2,1.0819774E-1,-1.0187781E0,-2.7775753E-1,1.043566E0,2.6629487E-2,1.2658116E-1,-1.2317057E-1,-6.6747956E-2,-7.891E-2,2.4616297E-2,1.2658167E-1,2.4971515E-2],"categories":[],"categories_nodes":[],"categories_segments":[],"categories_sizes":[],"default_left":[0,0,0,0,0,0,0,0,0,0,0,0,0,0,0,0,0,0,0,0,0,0,0],"id":7,"left_children":[1,3,-1,5,7,9,-1,11,13,15,-1,-1,17,19,21,-1,-1,-1,-1,-1,-1,-1,-1],"loss_changes":[3.0552698E2,5.0564552E1,0E0,1.10065E1,1.7451582E1,1.199234E0,0E0,1.5496239E1,2.6943031E1,4.937439E-1,0E0,0E0,5.0650406E-1,8.037302E0,5.524891E0,0E0,0E0,0E0,0E0,0E0,0E0,0E0,0E0],"parents":[2147483647,0,0,1,1,3,3,4,4,5,5,7,7,8,8,9,9,12,12,13,13,14,14],"right_children":[2,4,-1,6,8,10,-1,12,14,16,-1,-1,18,20,22,-1,-1,-1,-1,-1,-1,-1,-1],"split_conditions":[4.3028546E2,1E0,-1.3114801E-1,1.2133908E0,7.4257427E-3,1.06E2,-9.193817E-2,1.8217777E-5,4.0418053E0,4.98119E0,1.3561127E-2,1.0819774E-1,5.0251256E-3,5E0,4.2178073E0,2.6629487E-2,1.2658116E-1,-1.2317057E-1,-6.6747956E-2,-7.891E-2,2.4616297E-2,1.2658167E-1,2.4971515E-2],"split_indices":[6,9,0,7,2,4,0,1,5,5,0,0,12,4,5,0,0,0,0,0,0,0,0],"split_type":[0,0,0,0,0,0,0,0,0,0,0,0,0,0,0,0,0,0,0,0,0,0,0],"sum_hessian":[3.0172583E2,1.9040419E2,1.1132163E2,1.09753136E2,8.065106E1,1.0803463E2,1.7185034E0,2.026952E1,6.038154E1,1.0681544E2,1.2191963E0,3.507172E0,1.6762348E1,2.8275745E1,3.2105793E1,1.104568E0,1.0571087E2,8.876196E0,7.8861523E0,1.4053495E1,1.422225E1,2.4618843E1,7.48695E0],"tree_param":{"num_deleted":"0","num_feature":"13","num_nodes":"23","size_leaf_vector":"1"}},{"base_weights":[-2.298018E-3,7.360122E-1,-1.2586421E0,1.1594803E0,1.6710456E-1,-1.6287355E-2,-1.2712781E-1,1.2014192E0,-8.821606E-2,-4.6441412E-1,4.4936702E-1,1.2131522E0,1.2822433E-2,4.9629517E-2,-1.2443565E0,1.0343047E0,-2.6550803E-1,1.2211555E-1,2.5239367E-2,-1.2078235E-1,8.289678E-2,-3.4432888E-2,-1.5019344E-1,1.1909842E-1,-3.4477778E-2,5.7077117E-2,-1.1117511E-1],"categories":[],"categories_nodes":[],"categories_segments":[],"categories_sizes":[],"default_left":[0,0,0,0,0,0,0,0,0,0,0,0,0,0,0,0,0,0,0,0,0,0,0,0,0,0,0],"id":8,"left_children":[1,3,5,7,9,-1,-1,11,-1,13,15,17,-1,19,21,23,25,-1,-1,-1,-1,-1,-1,-1,-1,-1,-1],"loss_changes":[2.6597134E2,4.3316895E1,1.2625122E0,9.910767E0,1.4154753E1,0E0,0E0,1.1251831E0,0E0,9.948068E0,2.3096897E1,4.6450806E-1,0E0,1.6509043E1,1.7626753E0,6.94067E0,1.8579483E1,0E0,0E0,0E0,0E0,0E0,0E0,0E0,0E0,0E0,0E0],"parents":[2147483647,0,0,1,1,2,2,3,3,4,4,7,7,9,9,10,10,11,11,13,13,14,14,15,15,16,16],"right_children":[2,4,6,8,10,-1,-1,12,-1,14,16,18,-1,20,22,24,26,-1,-1,-1,-1,-1,-1,-1,-1,-1,-1],"split_conditions":[3.6587033E2,1E0,4.3028546E2,1.2133908E0,7.038916E1,-1.6287355E-2,-1.2712781E-1,1.06E2,-8.821606E-2,6.920212E1,4.2178073E0,1.2073501E0,1.2822433E-2,9.8864335E-1,2.5714285E0,6E-1,6E0,1.2211555E-1,2.5239367E-2,-1.2078235E-1,8.289678E-2,-3.4432888E-2,-1.5019344E-1,1.1909842E-1,-3.4477778E-2,5.7077117E-2,-1.1117511E-1],"split_indices":[6,9,6,7,6,0,0,4,0,6,5,7,0,5,0,12,9,0,0,0,0,0,0,0,0,0,0],"split_type":[0,0,0,0,0,0,0,0,0,0,0,0,0,0,0,0,0,0,0,0,0,0,0,0,0,0,0],"sum_hessian":[2.8474066E2,1.7960635E2,1.05134315E2,1.0236935E2,7.7237E1,1.3568957E0,1.0377742E2,1.0071208E2,1.6572628E0,2.3658789E1,5.3578217E1,9.949393E1,1.2181532E0,1.4824584E1,8.834205E0,2.9221363E1,2.4356852E1,9.8403175E1,1.0907557E0,5.4619637E0,9.36262E0,2.4856498E0,6.3485546E0,2.636266E1,2.8587031E0,1.2414272E1,1.194258E1],"tree_param":{"num_deleted":"0","num_feature":"13","num_nodes":"27","size_leaf_vector":"1"}},{"base_weights":[-3.3325683E-3,6.9231176E-1,-1.23685144E-1,1.1214056E0,1.3726102E-1,1.1631025E0,-8.479387E-2,-5.675963E-1,3.7631515E-1,1.1752422E0,1.2124512E-2,1.01741925E-1,-9.405849E-1,-2.4194147E-1,9.492006E-1,1.9734954E-2,1.1839491E-1,-6.2043067E-2,-1.1943984E-1,-7.125168E-2,2.6366958E-2,1.1829784E-1,1.9955846E-2],"categories":[],"categories_nodes":[],"categories_segments":[],"categories_sizes":[],"default_left":[0,0,0,0,0,0,0,0,0,0,0,0,0,0,0,0,0,0,0,0,0,0,0],"id":9,"left_children":[1,3,-1,5,7,9,-1,11,13,15,-1,-1,17,19,21,-1,-1,-1,-1,-1,-1,-1,-1],"loss_changes":[2.317956E2,4.098394E1,0E0,8.974159E0,1.3095185E1,1.0676727E0,0E0,1.2638987E1,2.066251E1,5.7066345E-1,0E0,0E0,6.0100174E-1,6.978968E0,5.0470524E0,0E0,0E0,0E0,0E0,0E0,0E0,0E0,0E0],"parents":[2147483647,0,0,1,1,3,3,4,4,5,5,7,7,8,8,9,9,12,12,13,13,14,14],"right_children":[2,4,-1,6,8,10,-1,12,14,16,-1,-1,18,20,22,-1,-1,-1,-1,-1,-1,-1,-1],"split_conditions":[4.3028546E2,1E0,-1.23685144E-1,1.2133908E0,7.4257427E-3,1.06E2,-8.479387E-2,1.8217777E-5,4.0418053E0,4.98119E0,1.2124512E-2,1.01741925E-1,1.5465232E-2,2.3809524E-1,4.2178073E0,1.9734954E-2,1.1839491E-1,-6.2043067E-2,-1.1943984E-1,-7.125168E-2,2.6366958E-2,1.1829784E-1,1.9955846E-2],"split_indices":[6,9,0,7,2,4,0,1,5,5,0,0,1,2,5,0,0,0,0,0,0,0,0],"split_type":[0,0,0,0,0,0,0,0,0,0,0,0,0,0,0,0,0,0,0,0,0,0,0],"sum_hessian":[2.6813168E2,1.717256E2,9.640609E1,9.627657E1,7.5449036E1,9.468128E1,1.5952915E0,1.8760086E1,5.6688946E1,9.346422E1,1.2170653E0,3.244563E0,1.5515524E1,2.7542654E1,2.914629E1,1.0336945E0,9.243052E1,8.384257E0,7.1312666E0,1.4053633E1,1.3489022E1,2.1777016E1,7.369275E0],"tree_param":{"num_deleted":"0","num_feature":"13","num_nodes":"23","size_leaf_vector":"1"}},{"base_weights":[-3.3929609E-3,6.59773E-1,-1.2071141E-1,1.085866E0,1.2845623E-1,1.1276757E0,-8.1628405E-2,-5.384287E-1,3.5115838E-1,1.14036E0,1.1465022E-2,9.803619E-2,-8.9484805E-1,-2.2002369E-1,9.0620995E-1,1.14942305E-1,1.8597487E-2,-1.1310742E-1,-5.3764056E-2,-1.1503347E-1,3.4441464E-3,1.1461335E-1,1.8289296E-2],"categories":[],"categories_nodes":[],"categories_segments":[],"categories_sizes":[],"default_left":[0,0,0,0,0,0,0,0,0,0,0,0,0,0,0,0,0,0,0,0,0,0,0],"id":10,"left_children":[1,3,-1,5,7,9,-1,11,13,15,-1,-1,17,19,21,-1,-1,-1,-1,-1,-1,-1,-1],"loss_changes":[2.0290956E2,3.6965195E1,0E0,8.143318E0,1.119062E1,1.0165787E0,0E0,1.1129566E1,1.7996792E1,5.480118E-1,0E0,0E0,7.3037434E-1,6.779632E0,4.765074E0,0E0,0E0,0E0,0E0,0E0,0E0,0E0,0E0],"parents":[2147483647,0,0,1,1,3,3,4,4,5,5,7,7,8,8,9,9,12,12,13,13,14,14],"right_children":[2,4,-1,6,8,10,-1,12,14,16,-1,-1,18,20,22,-1,-1,-1,-1,-1,-1,-1,-1],"split_conditions":[4.3028546E2,1E0,-1.2071141E-1,1.2133908E0,7.4257427E-3,1.06E2,-8.1628405E-2,1.8217777E-5,4.0418053E0,1.2073501E0,1.1465022E-2,9.803619E-2,5.0251256E-3,9.8864335E-1,4.2178073E0,1.14942305E-1,1.8597487E-2,-1.1310742E-1,-5.3764056E-2,-1.1503347E-1,3.4441464E-3,1.1461335E-1,1.8289296E-2],"split_indices":[6,9,0,7,2,4,0,1,5,7,0,0,12,5,5,0,0,0,0,0,0,0,0],"split_type":[0,0,0,0,0,0,0,0,0,0,0,0,0,0,0,0,0,0,0,0,0,0,0],"sum_hessian":[2.5218993E2,1.6289699E2,8.929294E1,8.982085E1,7.307615E1,8.828743E1,1.5334157E0,1.7939209E1,5.5136944E1,8.707148E1,1.2159462E0,3.0769558E0,1.4862253E1,2.7471098E1,2.7665844E1,8.604998E1,1.0215013E0,7.6420364E0,7.2202163E0,5.144067E0,2.2327032E1,2.0335897E1,7.329947E0],"tree_param":{"num_deleted":"0","num_feature":"13","num_nodes":"23","size_leaf_vector":"1"}},{"base_weights":[-3.7877983E-3,6.369504E-1,-1.1682466E0,1.0521572E0,1.3458699E-1,-1.572748E-2,-1.1812259E-1,1.0944191E0,-7.868465E-2,-3.9361492E-1,3.9245155E-1,1.1077908E0,1.0841778E-2,1.0875722E-1,-1.1509229E0,9.1506404E-1,-2.1180944E-1,1.1505627E-1,7.0348226E-2,-1.1061596E-1,7.8959204E-2,-2.8963586E-2,-1.4004923E-1,1.08410515E-1,-3.8494702E-2,5.0448436E-2,-9.999304E-2],"categories":[],"categories_nodes":[],"categories_segments":[],"categories_sizes":[],"default_left":[0,0,0,0,0,0,0,0,0,0,0,0,0,0,0,0,0,0,0,0,0,0,0,0,0,0,0],"id":11,"left_children":[1,3,5,7,9,-1,-1,11,-1,13,15,17,-1,19,21,23,25,-1,-1,-1,-1,-1,-1,-1,-1,-1,-1],"loss_changes":[1.7809718E2,3.1976147E1,9.259186E-1,7.401718E0,9.800947E0,0E0,0E0,9.70047E-1,0E0,9.154201E0,1.5380667E1,5.994415E-1,0E0,1.343083E1,1.647378E0,6.1256123E0,1.3553627E1,0E0,0E0,0E0,0E0,0E0,0E0,0E0,0E0,0E0,0E0],"parents":[2147483647,0,0,1,1,2,2,3,3,4,4,7,7,9,9,10,10,11,11,13,13,14,14,15,15,16,16],"right_children":[2,4,6,8,10,-1,-1,12,-1,14,16,18,-1,20,22,24,26,-1,-1,-1,-1,-1,-1,-1,-1,-1,-1],"split_conditions":[3.6587033E2,1E0,4.3028546E2,1.2133908E0,7.038916E1,-1.572748E-2,-1.1812259E-1,1.06E2,-7.868465E-2,6.920212E1,4.2178073E0,4.6255507E-2,1.0841778E-2,9.8864335E-1,2.5714285E0,6E-1,6E0,1.1505627E-1,7.0348226E-2,-1.1061596E-1,7.8959204E-2,-2.8963586E-2,-1.4004923E-1,1.08410515E-1,-3.8494702E-2,5.0448436E-2,-9.999304E-2],"split_indices":[6,9,6,7,6,0,0,4,0,6,5,12,0,5,0,12,9,0,0,0,0,0,0,0,0,0,0],"split_type":[0,0,0,0,0,0,0,0,0,0,0,0,0,0,0,0,0,0,0,0,0,0,0,0,0,0,0],"sum_hessian":[2.367026E2,1.529794E2,8.3723206E1,8.315598E1,6.982342E1,1.2275119E0,8.24957E1,8.168371E1,1.4722776E0,2.2732471E1,4.7090946E1,8.04689E1,1.2148072E0,1.4181404E1,8.551067E0,2.497567E1,2.2115276E1,7.110133E1,9.367565E0,4.868712E0,9.312692E0,2.4065135E0,6.144554E0,2.2248735E1,2.7269342E0,1.1774113E1,1.0341164E1],"tree_param":{"num_deleted":"0","num_feature":"13","num_nodes":"27","size_leaf_vector":"1"}},{"base_weights":[-4.7267596E-3,6.001737E-1,-1.15852475E-1,1.023847E0,1.07849054E-1,1.0661606E0,-7.593406E-2,2.1527459E-1,-1.0385305E-1,1.0801535E0,1.02527095E-2,-3.53459E-1,5.560743E-1,1.1360028E-1,7.305961E-2,2.0135155E-2,-8.359613E-2,8.9820996E-2,2.8022414E-3],"categories":[],"categories_nodes":[],"categories_segments":[],"categories_sizes":[],"default_left":[0,0,0,0,0,0,0,0,0,0,0,0,0,0,0,0,0,0,0],"id":12,"left_children":[1,3,-1,5,7,9,-1,11,-1,13,-1,15,17,-1,-1,-1,-1,-1,-1],"loss_changes":[1.5635358E2,3.054663E1,0E0,6.7611847E0,8.733047E0,9.338074E-1,0E0,1.2602507E1,0E0,6.5867615E-1,0E0,6.752164E0,7.275855E0,0E0,0E0,0E0,0E0,0E0,0E0],"parents":[2147483647,0,0,1,1,3,3,4,4,5,5,7,7,9,9,11,11,12,12],"right_children":[2,4,-1,6,8,10,-1,12,-1,14,-1,16,18,-1,-1,-1,-1,-1,-1],"split_conditions":[4.3028546E2,1E0,-1.15852475E-1,1.2133908E0,9.44399E-2,1.06E2,-7.593406E-2,9.34212E1,-1.0385305E-1,4.494382E-2,1.02527095E-2,2.7435802E1,4.223827E0,1.1360028E-1,7.305961E-2,2.0135155E-2,-8.359613E-2,8.9820996E-2,2.8022414E-3],"split_indices":[6,9,0,7,1,4,0,6,0,12,0,6,5,0,0,0,0,0,0],"split_type":[0,0,0,0,0,0,0,0,0,0,0,0,0,0,0,0,0,0,0],"sum_hessian":[2.2202753E2,1.4597644E2,7.605109E1,7.787821E1,6.809823E1,7.646584E1,1.4123687E0,6.300622E1,5.0920067E0,7.525218E1,1.2136582E0,2.3594345E1,3.9411877E1,6.294547E1,1.2306717E1,1.1245862E1,1.2348483E1,2.3490751E1,1.5921125E1],"tree_param":{"num_deleted":"0","num_feature":"13","num_nodes":"19","size_leaf_vector":"1"}},{"base_weights":[-4.992966E-3,5.772158E-1,-1.1246806E0,9.943111E-1,1.13296986E-1,-1.5265792E-2,-1.1384815E-1,1.0484269E0,-4.885994E-1,-1.07349716E-1,2.1925433E-1,7.274832E-1,1.1262745E-1,-1.3107786E-2,-6.425473E-2,-4.3997297E-1,4.483316E-1,1.0095954E-1,-1.1371918E-1,9.283344E-2,-7.8950115E-2,1.5877081E-1,2.830605E-2],"categories":[],"categories_nodes":[],"categories_segments":[],"categories_sizes":[],"default_left":[0,0,0,0,0,0,0,0,0,0,0,0,0,0,0,0,0,0,0,0,0,0,0],"id":13,"left_children":[1,3,5,7,9,-1,-1,11,13,-1,15,17,-1,-1,-1,19,21,-1,-1,-1,-1,-1,-1],"loss_changes":[1.374811E2,2.6736229E1,7.9400635E-1,6.3653107E0,8.637816E0,0E0,0E0,9.4672394E-1,9.4658494E-2,0E0,9.586192E0,9.892474E0,0E0,0E0,0E0,8.642358E0,8.332192E0,0E0,0E0,0E0,0E0,0E0,0E0],"parents":[2147483647,0,0,1,1,2,2,3,3,4,4,7,7,8,8,10,10,11,11,15,15,16,16],"right_children":[2,4,6,8,10,-1,-1,12,14,-1,16,18,-1,-1,-1,20,22,-1,-1,-1,-1,-1,-1],"split_conditions":[3.6587033E2,1E0,4.3028546E2,1.2073501E0,9.8864335E-1,-1.5265792E-2,-1.1384815E-1,1.20392275E1,3.651803E2,-1.07349716E-1,7.4257427E-3,9.624127E-1,1.1262745E-1,-1.3107786E-2,-6.425473E-2,1.8217777E-5,2.604299E1,1.0095954E-1,-1.1371918E-1,9.283344E-2,-7.8950115E-2,1.5877081E-1,2.830605E-2],"split_indices":[6,9,6,7,5,0,0,5,6,0,2,7,0,0,0,1,6,0,0,0,0,0,0],"split_type":[0,0,0,0,0,0,0,0,0,0,0,0,0,0,0,0,0,0,0,0,0,0,0],"sum_hessian":[2.0889969E2,1.3775507E2,7.114461E1,7.1936165E1,6.581891E1,1.1648359E0,6.9979774E1,6.9686104E1,2.2500584E0,4.646258E0,6.117265E1,1.5622775E1,5.406333E1,1.2345165E0,1.0155418E0,1.5537876E1,4.5634773E1,1.3968072E1,1.6547034E0,2.824554E0,1.2713323E1,4.69067E0,4.0944103E1],"tree_param":{"num_deleted":"0","num_feature":"13","num_nodes":"23","size_leaf_vector":"1"}},{"base_weights":[-5.099153E-3,5.407383E-1,-1.1206668E-1,9.685413E-1,9.056623E-2,1.0238354E0,-4.6864163E-2,-1.0367956E-1,1.8730383E-1,1.0413017E0,4.22201E-3,-4.5053124E-1,4.1137716E-1,1.1075169E-1,6.6008314E-2,8.9792304E-2,-7.750865E-2,-1.201849E-3,7.859124E-2],"categories":[],"categories_nodes":[],"categories_segments":[],"categories_sizes":[],"default_left":[0,0,0,0,0,0,0,0,0,0,0,0,0,0,0,0,0,0,0],"id":14,"left_children":[1,3,-1,5,7,9,-1,-1,11,13,-1,15,17,-1,-1,-1,-1,-1,-1],"loss_changes":[1.2101247E2,2.5612347E1,0E0,5.9091034E0,7.4059067E0,1.0894089E0,0E0,0E0,9.010512E0,9.073181E-1,0E0,7.9303718E0,7.338547E0,0E0,0E0,0E0,0E0,0E0,0E0],"parents":[2147483647,0,0,1,1,3,3,4,4,5,5,8,8,9,9,11,11,12,12],"right_children":[2,4,-1,6,8,10,-1,-1,12,14,-1,16,18,-1,-1,-1,-1,-1,-1],"split_conditions":[4.3028546E2,1E0,-1.1206668E-1,1.2073501E0,9.8864335E-1,1.06E2,-4.6864163E-2,-1.0367956E-1,7.4257427E-3,4.494382E-2,4.22201E-3,1.8217777E-5,4.0418053E0,1.1075169E-1,6.6008314E-2,8.9792304E-2,-7.750865E-2,-1.201849E-3,7.859124E-2],"split_indices":[6,9,0,7,5,4,0,0,2,12,0,1,5,0,0,0,0,0,0],"split_type":[0,0,0,0,0,0,0,0,0,0,0,0,0,0,0,0,0,0,0],"sum_hessian":[1.9673825E2,1.3244792E2,6.429033E1,6.732079E1,6.512713E1,6.5103615E1,2.2171817E0,4.3788795E0,6.0748253E1,6.3905704E1,1.1979098E0,1.5530195E1,4.5218056E1,5.2825134E1,1.1080571E1,2.6700613E0,1.2860134E1,2.167891E1,2.3539148E1],"tree_param":{"num_deleted":"0","num_feature":"13","num_nodes":"19","size_leaf_vector":"1"}},{"base_weights":[-5.026687E-3,5.158559E-1,-1.10472776E-1,9.431193E-1,8.408781E-2,9.9990416E-1,-4.3806102E-2,-1.0031611E-1,1.755133E-1,6.4704233E-1,1.0894128E-1,-1.3343E-1,5.970944E-1,9.5413074E-2,-1.0851612E-1,-8.946874E-2,1.5717722E-2,1.02798104E-1,-1.7834234E-3],"categories":[],"categories_nodes":[],"categories_segments":[],"categories_sizes":[],"default_left":[0,0,0,0,0,0,0,0,0,0,0,0,0,0,0,0,0,0,0],"id":15,"left_children":[1,3,-1,5,7,9,-1,-1,11,13,-1,15,17,-1,-1,-1,-1,-1,-1],"loss_changes":[1.06900505E2,2.3284157E1,0E0,5.4228134E0,6.5466356E0,1.2328568E0,0E0,0E0,7.8902755E0,8.948795E0,0E0,7.977571E0,6.7865324E0,0E0,0E0,0E0,0E0,0E0,0E0],"parents":[2147483647,0,0,1,1,3,3,4,4,5,5,8,8,9,9,11,11,12,12],"right_children":[2,4,-1,6,8,10,-1,-1,12,14,-1,16,18,-1,-1,-1,-1,-1,-1],"split_conditions":[4.3028546E2,1E0,-1.10472776E-1,1.2073501E0,9.8864335E-1,1.20392275E1,-4.3806102E-2,-1.0031611E-1,1.764706E-1,9.624127E-1,1.0894128E-1,9.700332E1,8E0,9.5413074E-2,-1.0851612E-1,-8.946874E-2,1.5717722E-2,1.02798104E-1,-1.7834234E-3],"split_indices":[6,9,0,7,5,5,0,0,2,7,0,6,4,0,0,0,0,0,0],"split_type":[0,0,0,0,0,0,0,0,0,0,0,0,0,0,0,0,0,0,0],"sum_hessian":[1.8462816E2,1.2564587E2,5.89823E1,6.255711E1,6.3088757E1,6.0351894E1,2.2052145E0,4.120039E0,5.8968716E1,1.3876522E1,4.6475372E1,3.4424927E1,2.454379E1,1.2168455E1,1.7080663E0,8.936561E0,2.5488365E1,1.403654E1,1.0507251E1],"tree_param":{"num_deleted":"0","num_feature":"13","num_nodes":"19","size_leaf_vector":"1"}},{"base_weights":[-5.593222E-3,4.9502563E-1,-1.0759336E0,9.157477E-1,9.065844E-2,-1.7620347E-2,-1.0903714E-1,9.624253E-1,-6.870261E-2,-3.309703E-1,3.133967E-1,6.1211807E-1,1.0531104E0,1.5252829E-1,-1.0406271E0,7.827871E-1,-1.9530715E-1,9.2471235E-2,-9.700272E-2,1.0700333E-1,3.7817333E-2,-9.7204655E-2,6.7985944E-2,-2.0156473E-2,-1.291182E-1,-2.7102238E-2,1.01677395E-1,4.0833678E-2,-9.096057E-2],"categories":[],"categories_nodes":[],"categories_segments":[],"categories_sizes":[],"default_left":[0,0,0,0,0,0,0,0,0,0,0,0,0,0,0,0,0,0,0,0,0,0,0,0,0,0,0,0,0],"id":16,"left_children":[1,3,5,7,9,-1,-1,11,-1,13,15,17,19,21,23,25,27,-1,-1,-1,-1,-1,-1,-1,-1,-1,-1,-1,-1],"loss_changes":[9.4379555E1,2.0334581E1,5.369873E-1,5.05336E0,5.9551115E0,0E0,0E0,1.1808357E0,0E0,7.7155104E0,1.0010393E1,7.9221907E0,1.0086441E-1,8.946203E0,1.6428604E0,5.619074E0,9.258952E0,0E0,0E0,0E0,0E0,0E0,0E0,0E0,0E0,0E0,0E0,0E0,0E0],"parents":[2147483647,0,0,1,1,2,2,3,3,4,4,7,7,9,9,10,10,11,11,12,12,13,13,14,14,15,15,16,16],"right_children":[2,4,6,8,10,-1,-1,12,-1,14,16,18,20,22,24,26,28,-1,-1,-1,-1,-1,-1,-1,-1,-1,-1,-1,-1],"split_conditions":[3.6587033E2,1E0,4.3028546E2,1.2133908E0,7.038916E1,-1.7620347E-2,-1.0903714E-1,1.20392275E1,-6.870261E-2,6.920212E1,4.2178073E0,9.624127E-1,1.207143E0,9.8864335E-1,2.5714285E0,4.708222E-4,6E0,9.2471235E-2,-9.700272E-2,1.0700333E-1,3.7817333E-2,-9.7204655E-2,6.7985944E-2,-2.0156473E-2,-1.291182E-1,-2.7102238E-2,1.01677395E-1,4.0833678E-2,-9.096057E-2],"split_indices":[6,9,6,7,6,0,0,5,0,6,5,7,7,5,0,1,9,0,0,0,0,0,0,0,0,0,0,0,0],"split_type":[0,0,0,0,0,0,0,0,0,0,0,0,0,0,0,0,0,0,0,0,0,0,0,0,0,0,0,0,0],"sum_hessian":[1.741423E2,1.1901445E2,5.512785E1,5.7707886E1,6.130656E1,1.0791984E0,5.4048653E1,5.646304E1,1.2448487E0,2.1023865E1,4.0282696E1,1.3204666E1,4.3258373E1,1.2971369E1,8.052496E0,2.0670687E1,1.961201E1,1.1373137E1,1.8315288E0,4.16292E1,1.6291704E0,3.871583E0,9.099786E0,2.2665865E0,5.7859097E0,3.7270124E0,1.6943674E1,1.0861469E1,8.75054E0],"tree_param":{"num_deleted":"0","num_feature":"13","num_nodes":"29","size_leaf_vector":"1"}},{"base_weights":[-6.7615523E-3,4.7129864E-1,-1.0615789E0,8.91732E-1,8.207115E-2,-1.6722897E-2,-1.0773511E-1,9.389622E-1,-6.6523165E-2,1.6708812E-1,-9.392029E-2,9.622706E-1,-6.1952355E-3,-2.2286448E-1,5.4922783E-1,1.0229222E-1,4.9144294E-2,-6.662675E-2,3.291127E-2,9.9589154E-2,1.15072355E-2],"categories":[],"categories_nodes":[],"categories_segments":[],"categories_sizes":[],"default_left":[0,0,0,0,0,0,0,0,0,0,0,0,0,0,0,0,0,0,0,0,0],"id":17,"left_children":[1,3,5,7,9,-1,-1,11,-1,13,-1,15,-1,17,19,-1,-1,-1,-1,-1,-1],"loss_changes":[8.336237E1,1.8544174E1,5.470619E-1,4.638935E0,5.381872E0,0E0,0E0,1.3053627E0,0E0,8.527199E0,0E0,9.89151E-1,0E0,7.2256627E0,5.465478E0,0E0,0E0,0E0,0E0,0E0,0E0],"parents":[2147483647,0,0,1,1,2,2,3,3,4,4,7,7,9,9,11,11,13,13,14,14],"right_children":[2,4,6,8,10,-1,-1,12,-1,14,-1,16,-1,18,20,-1,-1,-1,-1,-1,-1],"split_conditions":[3.6587033E2,1E0,4.3028546E2,1.2133908E0,9.44399E-2,-1.6722897E-2,-1.0773511E-1,1.06E2,-6.6523165E-2,9.700332E1,-9.392029E-2,4.6255507E-2,-6.1952355E-3,2.3809524E-1,4.2178073E0,1.0229222E-1,4.9144294E-2,-6.662675E-2,3.291127E-2,9.9589154E-2,1.15072355E-2],"split_indices":[6,9,6,7,1,0,0,4,0,6,0,12,0,2,5,0,0,0,0,0,0],"split_type":[0,0,0,0,0,0,0,0,0,0,0,0,0,0,0,0,0,0,0,0,0],"sum_hessian":[1.6332205E2,1.12767296E2,5.055476E1,5.358988E1,5.9177418E1,1.077176E0,4.9477585E1,5.2397343E1,1.1925373E0,5.540183E1,3.775588E0,5.124266E1,1.1546832E0,2.7626896E1,2.7774933E1,4.4356144E1,6.8865156E0,1.5205373E1,1.2421524E1,1.3052513E1,1.472242E1],"tree_param":{"num_deleted":"0","num_feature":"13","num_nodes":"21","size_leaf_vector":"1"}},{"base_weights":[-6.9298833E-3,4.392837E-1,-1.0654575E-1,8.707991E-1,6.092209E-2,9.324799E-1,-4.219843E-2,1.5103897E-1,-9.363261E-2,5.3441155E-1,1.0433251E-1,-2.0301974E-1,5.058337E-1,8.727001E-2,-9.327785E-2,-8.254313E-2,1.4836776E-2,9.719702E-2,8.928315E-3],"categories":[],"categories_nodes":[],"categories_segments":[],"categories_sizes":[],"default_left":[0,0,0,0,0,0,0,0,0,0,0,0,0,0,0,0,0,0,0],"id":18,"left_children":[1,3,-1,5,7,9,-1,11,-1,13,-1,15,17,-1,-1,-1,-1,-1,-1],"loss_changes":[7.367697E1,1.7864307E1,0E0,4.4757156E0,5.4928646E0,1.6122055E0,0E0,7.0711436E0,0E0,7.1475806E0,0E0,6.3510475E0,5.3488426E0,0E0,0E0,0E0,0E0,0E0,0E0],"parents":[2147483647,0,0,1,1,3,3,4,4,5,5,7,7,9,9,11,11,12,12],"right_children":[2,4,-1,6,8,10,-1,12,-1,14,-1,16,18,-1,-1,-1,-1,-1,-1],"split_conditions":[4.3028546E2,1E0,-1.0654575E-1,1.2073501E0,9.44399E-2,1.20392275E1,-4.219843E-2,9.700332E1,-9.363261E-2,9.624127E-1,1.0433251E-1,1.764706E-1,4.2178073E0,8.727001E-2,-9.327785E-2,-8.254313E-2,1.4836776E-2,9.719702E-2,8.928315E-3],"split_indices":[6,9,0,7,1,5,0,6,0,7,0,2,5,0,0,0,0,0,0],"split_type":[0,0,0,0,0,0,0,0,0,0,0,0,0,0,0,0,0,0,0],"sum_hessian":[1.5399551E2,1.0874145E2,4.5254055E1,5.019423E1,5.8547222E1,4.817445E1,2.0197778E0,5.447326E1,4.0739617E0,1.1760664E1,3.6413788E1,2.7479023E1,2.6994238E1,9.886365E0,1.8742994E0,9.428785E0,1.8050238E1,1.2109666E1,1.4884571E1],"tree_param":{"num_deleted":"0","num_feature":"13","num_nodes":"19","size_leaf_vector":"1"}},{"base_weights":[-7.2910315E-3,4.2289054E-1,-1.0372595E0,8.443698E-1,6.984017E-2,-1.6253693E-2,-1.0545111E-1,9.081553E-1,-3.9510038E-2,-9.387415E-2,1.5404007E-1,5.036102E-1,1.02703534E-1,1.2411624E0,1.7574005E-2,8.4480666E-2,-8.385487E-2,2.3481844E-2,1.4288935E-1,-7.380401E-2,2.7148826E-2],"categories":[],"categories_nodes":[],"categories_segments":[],"categories_sizes":[],"default_left":[0,0,0,0,0,0,0,0,0,0,0,0,0,0,0,0,0,0,0,0,0],"id":19,"left_children":[1,3,5,7,9,-1,-1,11,-1,-1,13,15,-1,17,19,-1,-1,-1,-1,-1,-1],"loss_changes":[6.524583E1,1.5399506E1,4.832573E-1,4.0954666E0,5.037995E0,0E0,0E0,1.6591072E0,0E0,0E0,7.9954686E0,6.3136177E0,0E0,8.0042076E-1,9.606991E0,0E0,0E0,0E0,0E0,0E0,0E0],"parents":[2147483647,0,0,1,1,2,2,3,3,4,4,7,7,10,10,11,11,13,13,14,14],"right_children":[2,4,6,8,10,-1,-1,12,-1,-1,14,16,-1,18,20,-1,-1,-1,-1,-1,-1],"split_conditions":[3.6587033E2,1E0,4.3028546E2,1.2073501E0,9.8864335E-1,-1.6253693E-2,-1.0545111E-1,1.20392275E1,-3.9510038E-2,-9.387415E-2,2.604299E1,9.624127E-1,1.02703534E-1,1E0,7.038916E1,8.4480666E-2,-8.385487E-2,2.3481844E-2,1.4288935E-1,-7.380401E-2,2.7148826E-2],"split_indices":[6,9,6,7,5,0,0,5,0,0,6,7,0,3,6,0,0,0,0,0,0],"split_type":[0,0,0,0,0,0,0,0,0,0,0,0,0,0,0,0,0,0,0,0,0],"sum_hessian":[1.4526735E2,1.0288522E2,4.2382126E1,4.6263363E1,5.662186E1,1.0212728E0,4.136085E1,4.4253307E1,2.0100548E0,3.580783E0,5.304108E1,1.124005E1,3.301326E1,5.012806E0,4.8028275E1,9.257277E0,1.9827738E0,1.1419789E0,3.870827E0,1.1600405E1,3.6427868E1],"tree_param":{"num_deleted":"0","num_feature":"13","num_nodes":"21","size_leaf_vector":"1"}},{"base_weights":[-7.363972E-3,4.0349752E-1,-1.014357E0,8.1943387E-1,7.419131E-2,-2.0493578E-2,-1.0443558E-1,8.853212E-1,-3.6985826E-2,-9.11631E-2,1.5371978E-1,4.7438008E-1,1.0126978E-1,4.028533E-2,1.369453E-1,8.172642E-2,-7.5660706E-2,-5.597002E-2,2.6432017E-2],"categories":[],"categories_nodes":[],"categories_segments":[],"categories_sizes":[],"default_left":[0,0,0,0,0,0,0,0,0,0,0,0,0,0,0,0,0,0,0],"id":20,"left_children":[1,3,5,7,9,-1,-1,11,-1,-1,13,15,-1,17,-1,-1,-1,-1,-1],"loss_changes":[5.778474E1,1.3527624E1,7.6865387E-1,3.7547073E0,4.567371E0,0E0,0E0,1.7042656E0,0E0,0E0,7.268943E0,5.580781E0,0E0,6.8160315E0,0E0,0E0,0E0,0E0,0E0],"parents":[2147483647,0,0,1,1,2,2,3,3,4,4,7,7,10,10,11,11,13,13],"right_children":[2,4,6,8,10,-1,-1,12,-1,-1,14,16,-1,18,-1,-1,-1,-1,-1],"split_conditions":[3.658698E2,1E0,4.3028546E2,1.2073501E0,9.8864335E-1,-2.0493578E-2,-1.0443558E-1,1.20392275E1,-3.6985826E-2,-9.11631E-2,4.142857E0,9.624127E-1,1.0126978E-1,7.038916E1,1.369453E-1,8.172642E-2,-7.5660706E-2,-5.597002E-2,2.6432017E-2],"split_indices":[6,9,6,7,5,0,0,5,0,0,0,7,0,6,0,0,0,0,0],"split_type":[0,0,0,0,0,0,0,0,0,0,0,0,0,0,0,0,0,0,0],"sum_hessian":[1.3767691E2,9.820696E1,3.946995E1,4.2737812E1,5.5469154E1,1.690435E0,3.7779514E1,4.0736576E1,2.0012355E0,3.3597145E0,5.210944E1,1.0756927E1,2.997965E1,4.8607258E1,3.5021818E0,8.676289E0,2.0806375E0,1.28080015E1,3.5799255E1],"tree_param":{"num_deleted":"0","num_feature":"13","num_nodes":"19","size_leaf_vector":"1"}},{"base_weights":[-7.469276E-3,3.6760566E-1,-1.0348556E-1,8.022244E-1,4.3526046E-2,8.5409784E-1,-6.0852718E-2,1.329201E-1,-9.172888E-2,4.4663185E-1,9.787619E-1,-1.6620992E-1,4.341692E-1,7.900132E-2,-6.8486184E-2,1.0017153E-1,2.9851962E-2,-7.929361E-2,1.8131314E-2,9.3627624E-2,3.3076704E-3],"categories":[],"categories_nodes":[],"categories_segments":[],"categories_sizes":[],"default_left":[0,0,0,0,0,0,0,0,0,0,0,0,0,0,0,0,0,0,0,0,0],"id":21,"left_children":[1,3,-1,5,7,9,-1,11,-1,13,15,17,19,-1,-1,-1,-1,-1,-1,-1,-1],"loss_changes":[5.1140568E1,1.3660722E1,0E0,3.5550346E0,4.99695E0,1.6161308E0,0E0,4.830143E0,0E0,4.9350114E0,1.7114258E-1,6.071575E0,5.322785E0,0E0,0E0,0E0,0E0,0E0,0E0,0E0,0E0],"parents":[2147483647,0,0,1,1,3,3,4,4,5,5,7,7,9,9,10,10,11,11,12,12],"right_children":[2,4,-1,6,8,10,-1,12,-1,14,16,18,20,-1,-1,-1,-1,-1,-1,-1,-1],"split_conditions":[4.3028546E2,1E0,-1.0348556E-1,1.2133908E0,9.44399E-2,1.20392275E1,-6.0852718E-2,9.700332E1,-9.172888E-2,9.624127E-1,1.207143E0,1.764706E-1,4.2178073E0,7.900132E-2,-6.8486184E-2,1.0017153E-1,2.9851962E-2,-7.929361E-2,1.8131314E-2,9.3627624E-2,3.3076704E-3],"split_indices":[6,9,0,7,1,5,0,6,0,7,7,2,5,0,0,0,0,0,0,0,0],"split_type":[0,0,0,0,0,0,0,0,0,0,0,0,0,0,0,0,0,0,0,0,0],"sum_hessian":[1.3072586E2,9.623491E1,3.449094E1,4.047673E1,5.5758183E1,3.942177E1,1.054962E0,5.1800346E1,3.9578364E0,1.0309083E1,2.9112684E1,2.6216513E1,2.5583832E1,8.140448E0,2.1686354E0,2.7705242E1,1.4074423E0,8.894469E0,1.7322042E1,1.0768716E1,1.4815117E1],"tree_param":{"num_deleted":"0","num_feature":"13","num_nodes":"21","size_leaf_vector":"1"}},{"base_weights":[-7.7365697E-3,3.5888526E-1,-9.933068E-1,7.7384835E-1,6.3332714E-2,-2.0858575E-2,-1.0258901E-1,8.2705534E-1,-5.9049316E-2,-8.855714E-2,1.3836904E-1,8.64728E-1,-2.4138695E-2,1.1605724E0,7.0727984E-3,9.647719E-2,4.238259E-2,1.3355638E-1,1.9033834E-2,-7.625551E-2,2.0780118E-2],"categories":[],"categories_nodes":[],"categories_segments":[],"categories_sizes":[],"default_left":[0,0,0,0,0,0,0,0,0,0,0,0,0,0,0,0,0,0,0,0,0],"id":22,"left_children":[1,3,5,7,9,-1,-1,11,-1,-1,13,15,-1,17,19,-1,-1,-1,-1,-1,-1],"loss_changes":[4.5434124E1,1.1192975E1,6.576576E-1,3.2498093E0,4.011872E0,0E0,0E0,1.6991901E0,0E0,0E0,6.9017615E0,1.1784344E0,0E0,7.3973036E-1,7.362381E0,0E0,0E0,0E0,0E0,0E0,0E0],"parents":[2147483647,0,0,1,1,2,2,3,3,4,4,7,7,10,10,11,11,13,13,14,14],"right_children":[2,4,6,8,10,-1,-1,12,-1,-1,14,16,-1,18,20,-1,-1,-1,-1,-1,-1],"split_conditions":[3.658698E2,1E0,4.3028546E2,1.2133908E0,9.8864335E-1,-2.0858575E-2,-1.0258901E-1,1.06E2,-5.9049316E-2,-8.855714E-2,2.604299E1,4.494382E-2,-2.4138695E-2,1.2372761E0,7.028973E1,9.647719E-2,4.238259E-2,1.3355638E-1,1.9033834E-2,-7.625551E-2,2.0780118E-2],"split_indices":[6,9,6,7,5,0,0,4,0,0,6,12,0,7,6,0,0,0,0,0,0],"split_type":[0,0,0,0,0,0,0,0,0,0,0,0,0,0,0,0,0,0,0,0,0],"sum_hessian":[1.2375423E2,9.0664024E1,3.3090206E1,3.7040264E1,5.362376E1,1.6142782E0,3.147593E1,3.6029E1,1.0112629E0,3.1380682E0,5.048569E1,3.4986076E1,1.042924E0,4.8541894E0,4.56315E1,2.7547232E1,7.4388437E0,3.7934628E0,1.0607266E0,8.860365E0,3.6771137E1],"tree_param":{"num_deleted":"0","num_feature":"13","num_nodes":"21","size_leaf_vector":"1"}},{"base_weights":[-8.1264125E-3,3.2470012E-1,-1.017352E-1,7.569387E-1,3.3916082E-2,8.2750034E-1,-3.6201384E-2,1.19631276E-1,-8.8843025E-2,3.8142118E-1,9.795921E-2,-8.610666E-2,1.973847E-1,7.4249886E-2,-6.6057794E-2,8.720695E-3,1.2766415E-1],"categories":[],"categories_nodes":[],"categories_segments":[],"categories_sizes":[],"default_left":[0,0,0,0,0,0,0,0,0,0,0,0,0,0,0,0,0],"id":23,"left_children":[1,3,-1,5,7,9,-1,11,-1,13,-1,-1,15,-1,-1,-1,-1],"loss_changes":[4.0250317E1,1.1302641E1,0E0,3.1578693E0,4.448905E0,1.9574089E0,0E0,4.0694857E0,0E0,4.3934956E0,0E0,0E0,5.619703E0,0E0,0E0,0E0,0E0],"parents":[2147483647,0,0,1,1,3,3,4,4,5,5,7,7,9,9,12,12],"right_children":[2,4,-1,6,8,10,-1,12,-1,14,-1,-1,16,-1,-1,-1,-1],"split_conditions":[4.3028546E2,1E0,-1.017352E-1,1.2073501E0,9.44399E-2,1.20392275E1,-3.6201384E-2,9.8864335E-1,-8.8843025E-2,9.624127E-1,9.795921E-2,-8.610666E-2,4.142857E0,7.4249886E-2,-6.6057794E-2,8.720695E-3,1.2766415E-1],"split_indices":[6,9,0,7,1,5,0,5,0,7,0,0,0,0,0,0,0],"split_type":[0,0,0,0,0,0,0,0,0,0,0,0,0,0,0,0,0],"sum_hessian":[1.1784589E2,8.913038E1,2.8715511E1,3.5201576E1,5.3928802E1,3.3358444E1,1.8431296E0,5.0139545E1,3.7892556E0,9.373671E0,2.3984776E1,2.9431756E0,4.719637E1,7.1748433E0,2.198827E0,4.380524E1,3.3911293E0],"tree_param":{"num_deleted":"0","num_feature":"13","num_nodes":"17","size_leaf_vector":"1"}},{"base_weights":[-8.483068E-3,3.408893E-1,-9.057647E-1,7.9825395E-1,6.958903E-2,2.1402155E-1,-1.0004307E-1,3.5754293E-1,9.6647725E-2,-6.0064316E-1,1.6507503E-1,5.7933606E-2,-2.7559906E-2,7.1566933E-1,-6.001658E-1,-1.1388313E-1,-9.734348E-3,-8.3759904E-2,2.4657829E-1,9.051909E-2,-2.6941424E-2,6.679364E-2,-1.4920007E-1,-7.363667E-2,7.0889376E-2,1.3988541E-2,1.2085449E-1],"categories":[],"categories_nodes":[],"categories_segments":[],"categories_sizes":[],"default_left":[0,0,0,0,0,0,0,0,0,0,0,0,0,0,0,0,0,0,0,0,0,0,0,0,0,0,0],"id":24,"left_children":[1,3,5,7,9,11,-1,13,-1,15,17,-1,-1,19,21,-1,23,-1,25,-1,-1,-1,-1,-1,-1,-1,-1],"loss_changes":[3.586878E1,1.0165323E1,3.612997E0,1.9210854E0,3.4780943E0,7.540496E-1,0E0,3.8707519E0,0E0,2.1513019E0,4.047289E0,0E0,0E0,1.6923759E0,4.6999545E0,0E0,2.7410781E0,0E0,4.3712807E0,0E0,0E0,0E0,0E0,0E0,0E0,0E0,0E0],"parents":[2147483647,0,0,1,1,2,2,3,3,4,4,5,5,7,7,9,9,10,10,13,13,14,14,16,16,18,18],"right_children":[2,4,6,8,10,12,-1,14,-1,16,18,-1,-1,20,22,-1,24,-1,26,-1,-1,-1,-1,-1,-1,-1,-1],"split_conditions":[3.6494672E2,1E0,3.245611E-5,1.20392275E1,1E0,3.658693E2,-1.0004307E-1,9.624127E-1,9.6647725E-2,9.700332E1,9.8864335E-1,5.7933606E-2,-2.7559906E-2,1.06E2,4E0,-1.1388313E-1,7.4257427E-3,-8.3759904E-2,4.142857E0,9.051909E-2,-2.6941424E-2,6.679364E-2,-1.4920007E-1,-7.363667E-2,7.0889376E-2,1.3988541E-2,1.2085449E-1],"split_indices":[6,9,1,5,8,6,0,7,0,6,5,0,0,4,4,0,2,0,0,0,0,0,0,0,0,0,0],"split_type":[0,0,0,0,0,0,0,0,0,0,0,0,0,0,0,0,0,0,0,0,0,0,0,0,0,0,0],"sum_hessian":[1.1243436E2,8.1371155E1,3.1063202E1,2.9573347E1,5.1797802E1,2.323084E0,2.8740118E1,9.033307E0,2.0540041E1,5.7995334E0,4.5998272E1,1.2254901E0,1.0975941E0,6.7586856E0,2.2746212E0,2.54989E0,3.2496433E0,2.7605383E0,4.3237732E1,5.736194E0,1.0224917E0,1.0428476E0,1.2317736E0,1.6035492E0,1.6460941E0,3.995202E1,3.2857113E0],"tree_param":{"num_deleted":"0","num_feature":"13","num_nodes":"27","size_leaf_vector":"1"}},{"base_weights":[-8.607789E-3,2.85133E-1,-1.0014421E-1,5.444393E-1,-1.5534966E-1,7.2026813E-1,-2.2465673E-1,2.018865E-1,-9.0741086E-1,7.7216184E-1,-3.3681143E-2,-7.8172755E-1,5.7383937E-1,-2.1592548E-1,9.742803E-2,-1.1879694E-1,-4.7069657E-1,4.7378626E-2,1.08826414E-1,-1.0400983E-1,2.5126848E-2,-1.6470749E-2,9.354499E-2,4.773189E-2,-7.6466404E-2,6.728008E-2,-9.1217846E-2],"categories":[],"categories_nodes":[],"categories_segments":[],"categories_sizes":[],"default_left":[0,0,0,0,0,0,0,0,0,0,0,0,0,0,0,0,0,0,0,0,0,0,0,0,0,0,0],"id":25,"left_children":[1,3,-1,5,7,9,11,13,15,17,-1,19,21,23,-1,-1,25,-1,-1,-1,-1,-1,-1,-1,-1,-1,-1],"loss_changes":[3.1880245E1,9.722461E0,0E0,7.3742714E0,8.792506E0,2.6544418E0,5.2022223E0,7.4854307E0,7.2753525E-1,3.437189E0,0E0,2.0544324E0,1.4809608E0,6.241644E0,0E0,0E0,3.5235386E0,0E0,0E0,0E0,0E0,0E0,0E0,0E0,0E0,0E0,0E0],"parents":[2147483647,0,0,1,1,3,3,4,4,5,5,6,6,7,7,8,8,9,9,11,11,12,12,13,13,16,16],"right_children":[2,4,-1,6,8,10,12,14,16,18,-1,20,22,24,-1,-1,26,-1,-1,-1,-1,-1,-1,-1,-1,-1,-1],"split_conditions":[4.3028546E2,6E0,-1.0014421E-1,1.3636364E-1,4.21775E0,1.2073501E0,2.777778E-1,4.0418053E0,3.404653E2,1.3941314E1,-3.3681143E-2,3.857143E0,3E0,6.920212E1,9.742803E-2,-1.1879694E-1,3.41845E2,4.7378626E-2,1.08826414E-1,-1.0400983E-1,2.5126848E-2,-1.6470749E-2,9.354499E-2,4.773189E-2,-7.6466404E-2,6.728008E-2,-9.1217846E-2],"split_indices":[6,9,0,12,5,7,12,5,6,5,0,0,4,6,0,0,6,0,0,0,0,0,0,0,0,0,0],"split_type":[0,0,0,0,0,0,0,0,0,0,0,0,0,0,0,0,0,0,0,0,0,0,0,0,0,0,0],"sum_hessian":[1.073361E2,8.338003E1,2.3956076E1,5.233506E1,3.1044966E1,4.2648384E1,9.686678E0,2.1543266E1,9.501699E0,4.09096E1,1.7387841E0,5.718303E0,3.9683745E0,1.4448218E1,7.0950475E0,4.737769E0,4.76393E0,2.233035E1,1.8579248E1,4.5687113E0,1.1495919E0,1.4833413E0,2.485033E0,6.441082E0,8.007136E0,1.1810062E0,3.582924E0],"tree_param":{"num_deleted":"0","num_feature":"13","num_nodes":"27","size_leaf_vector":"1"}},{"base_weights":[-8.8476185E-3,2.6943126E-1,-9.9363945E-2,6.9213295E-1,2.0798687E-2,7.653593E-1,-3.1600222E-2,-2.080796E-1,3.2168484E-1,3.029282E-1,9.449961E-2,3.0411816E-1,-4.9852228E-1,-1.4497969E-1,9.203777E-1,6.753701E-2,-5.970305E-2,6.298985E-2,-8.520518E-2,-6.306177E-2,4.754687E-2,3.137942E-2,-7.5083755E-2,-1.5017949E-2,1.0877371E-1],"categories":[],"categories_nodes":[],"categories_segments":[],"categories_sizes":[],"default_left":[0,0,0,0,0,0,0,0,0,0,0,0,0,0,0,0,0,0,0,0,0,0,0,0,0],"id":26,"left_children":[1,3,-1,5,7,9,-1,11,13,15,-1,17,19,21,23,-1,-1,-1,-1,-1,-1,-1,-1,-1,-1],"loss_changes":[2.8418999E1,8.485765E0,0E0,2.4508314E0,3.644947E0,2.055378E0,0E0,4.6318192E0,6.514588E0,3.5400052E0,0E0,4.875394E0,2.82122E0,4.043271E0,1.9802408E0,0E0,0E0,0E0,0E0,0E0,0E0,0E0,0E0,0E0,0E0],"parents":[2147483647,0,0,1,1,3,3,4,4,5,5,7,7,8,8,9,9,11,11,12,12,13,13,14,14],"right_children":[2,4,-1,6,8,10,-1,12,14,16,-1,18,20,22,24,-1,-1,-1,-1,-1,-1,-1,-1,-1,-1],"split_conditions":[4.3028546E2,1E0,-9.9363945E-2,1.2073501E0,1.764706E-1,1.20392275E1,-3.1600222E-2,6E0,2.9328816E0,9.624127E-1,9.449961E-2,1.2195122E-1,4.142857E0,6.920212E1,8.972973E0,6.753701E-2,-5.970305E-2,6.298985E-2,-8.520518E-2,-6.306177E-2,4.754687E-2,3.137942E-2,-7.5083755E-2,-1.5017949E-2,1.0877371E-1],"split_indices":[6,9,0,7,2,5,0,9,5,7,0,2,0,6,10,0,0,0,0,0,0,0,0,0,0],"split_type":[0,0,0,0,0,0,0,0,0,0,0,0,0,0,0,0,0,0,0,0,0,0,0,0,0],"sum_hessian":[1.0172436E2,7.987888E1,2.1845474E1,2.8922987E1,5.09559E1,2.7188923E1,1.7340629E0,2.9116205E1,2.1839691E1,8.358454E0,1.883047E1,1.0518923E1,1.8597282E1,1.2699006E1,9.140685E0,6.0883746E0,2.270079E0,8.561646E0,1.9572766E0,1.6686724E1,1.9105579E0,7.50105E0,5.197956E0,1.2496482E0,7.8910375E0],"tree_param":{"num_deleted":"0","num_feature":"13","num_nodes":"25","size_leaf_vector":"1"}},{"base_weights":[-8.339998E-3,2.8946468E-1,-8.816159E-1,7.3509353E-1,5.633691E-2,1.9219836E-2,-9.7596705E-1,2.8277713E-1,9.319215E-2,-8.323409E-2,1.258027E-1,-5.243357E-1,-1.0323813E-1,6.4895386E-1,-5.439267E-1,1.0020747E0,1.1194197E-2,1.362616E-2,-7.480719E-2,-2.5354197E-2,8.968407E-2,6.5012105E-2,-1.3440631E-1,1.14771836E-1,2.6321156E-2,2.2566231E-2,-6.54341E-2],"categories":[],"categories_nodes":[],"categories_segments":[],"categories_sizes":[],"default_left":[0,0,0,0,0,0,0,0,0,0,0,0,0,0,0,0,0,0,0,0,0,0,0,0,0,0,0],"id":27,"left_children":[1,3,5,7,9,-1,11,13,-1,-1,15,17,-1,19,21,23,25,-1,-1,-1,-1,-1,-1,-1,-1,-1,-1],"loss_changes":[2.5733543E1,7.6264195E0,2.73674E0,1.9859962E0,3.1630042E0,0E0,5.2150726E-2,3.10682E0,0E0,0E0,4.6906176E0,7.845528E-1,0E0,1.7398188E0,4.06151E0,2.794156E-1,6.2016764E0,0E0,0E0,0E0,0E0,0E0,0E0,0E0,0E0,0E0,0E0],"parents":[2147483647,0,0,1,1,2,2,3,3,4,4,6,6,7,7,10,10,11,11,13,13,14,14,15,15,16,16],"right_children":[2,4,6,8,10,-1,12,14,-1,-1,16,18,-1,20,22,24,26,-1,-1,-1,-1,-1,-1,-1,-1,-1,-1],"split_conditions":[3.6494672E2,1E0,3.245611E-5,1.20392275E1,9.8864335E-1,1.9219836E-2,4.1599167E-5,9.624127E-1,9.319215E-2,-8.323409E-2,2.604299E1,4.320606E2,-1.0323813E-1,6.747324E-1,4E0,6.859315E-1,2.5714285E0,1.362616E-2,-7.480719E-2,-2.5354197E-2,8.968407E-2,6.5012105E-2,-1.3440631E-1,1.14771836E-1,2.6321156E-2,2.2566231E-2,-6.54341E-2],"split_indices":[6,9,1,5,5,0,1,7,0,0,6,6,0,7,4,7,0,0,0,0,0,0,0,0,0,0,0],"split_type":[0,0,0,0,0,0,0,0,0,0,0,0,0,0,0,0,0,0,0,0,0,0,0,0,0,0,0],"sum_hessian":[9.696891E1,7.280833E1,2.4160578E1,2.426743E1,4.85409E1,1.8676561E0,2.2292921E1,8.096987E0,1.6170443E1,2.7230334E0,4.5817867E1,3.6185484E0,1.8674374E1,5.7604766E0,2.3365107E0,4.4038115E0,4.1414055E1,1.0144081E0,2.6041403E0,1.2363634E0,4.524113E0,1.0127163E0,1.3237944E0,3.2164354E0,1.187376E0,3.182077E1,9.593284E0],"tree_param":{"num_deleted":"0","num_feature":"13","num_nodes":"27","size_leaf_vector":"1"}},{"base_weights":[-8.388599E-3,2.3866576E-1,-9.787523E-2,6.500425E-1,1.7624922E-2,7.240615E-1,-2.9260293E-2,9.5149726E-2,-8.362717E-2,2.6420578E-1,9.20483E-2,-1.6970986E-1,3.5155728E-1,6.2419415E-2,-5.0336063E-2,4.5504507E-2,-4.010903E-2,-1.3316537E-2,7.1534924E-2],"categories":[],"categories_nodes":[],"categories_segments":[],"categories_sizes":[],"default_left":[0,0,0,0,0,0,0,0,0,0,0,0,0,0,0,0,0,0,0],"id":28,"left_children":[1,3,-1,5,7,9,-1,11,-1,13,-1,15,17,-1,-1,-1,-1,-1,-1],"loss_changes":[2.2762508E1,6.8727946E0,0E0,2.0562286E0,3.4076788E0,1.9965916E0,0E0,3.2507286E0,0E0,2.752451E0,0E0,3.6211576E0,4.3627567E0,0E0,0E0,0E0,0E0,0E0,0E0],"parents":[2147483647,0,0,1,1,3,3,4,4,5,5,7,7,9,9,11,11,12,12],"right_children":[2,4,-1,6,8,10,-1,12,-1,14,-1,16,18,-1,-1,-1,-1,-1,-1],"split_conditions":[4.3028546E2,1E0,-9.787523E-2,1.2073501E0,9.44399E-2,1.20392275E1,-2.9260293E-2,1.9019414E-3,-8.362717E-2,9.624127E-1,9.20483E-2,6.859315E-1,3.8954165E0,6.2419415E-2,-5.0336063E-2,4.5504507E-2,-4.010903E-2,-1.3316537E-2,7.1534924E-2],"split_indices":[6,9,0,7,1,5,0,1,0,7,0,7,5,0,0,0,0,0,0],"split_type":[0,0,0,0,0,0,0,0,0,0,0,0,0,0,0,0,0,0,0],"sum_hessian":[9.297519E1,7.470848E1,1.8266716E1,2.543355E1,4.927493E1,2.379684E1,1.6367078E0,4.598825E1,3.286678E0,7.8241916E0,1.597265E1,2.2787611E1,2.320064E1,5.453357E0,2.3708344E0,5.8973646E0,1.6890245E1,1.0218837E1,1.2981803E1],"tree_param":{"num_deleted":"0","num_feature":"13","num_nodes":"19","size_leaf_vector":"1"}},{"base_weights":[-8.349395E-3,2.5591102E-1,-8.6335266E-1,6.92421E-1,4.9871862E-2,1.7584063E-2,-9.613166E-1,2.4653286E-1,9.061163E-2,-8.128997E-2,1.1594209E-1,-4.9107343E-1,-1.0205052E-1,5.983884E-1,-4.6038678E-1,2.0182608E-2,1.1014781E-1,3.362412E-3,-6.9176145E-2,-2.7800644E-2,8.660208E-2,6.4537905E-2,-1.1864436E-1,-5.2448746E-2,1.8552337E-2],"categories":[],"categories_nodes":[],"categories_segments":[],"categories_sizes":[],"default_left":[0,0,0,0,0,0,0,0,0,0,0,0,0,0,0,0,0,0,0,0,0,0,0,0,0],"id":29,"left_children":[1,3,5,7,9,-1,11,13,-1,-1,15,17,-1,19,21,23,-1,-1,-1,-1,-1,-1,-1,-1,-1],"loss_changes":[2.0639849E1,6.243704E0,2.3644905E0,1.9020548E0,2.8589077E0,0E0,5.1691055E-2,2.414772E0,0E0,0E0,4.311923E0,4.6005595E-1,0E0,1.6896589E0,3.514163E0,3.958609E0,0E0,0E0,0E0,0E0,0E0,0E0,0E0,0E0,0E0],"parents":[2147483647,0,0,1,1,2,2,3,3,4,4,6,6,7,7,10,10,11,11,13,13,14,14,15,15],"right_children":[2,4,6,8,10,-1,12,14,-1,-1,16,18,-1,20,22,24,-1,-1,-1,-1,-1,-1,-1,-1,-1],"split_conditions":[3.6494672E2,1E0,3.245611E-5,1.20392275E1,9.8864335E-1,1.7584063E-2,4.1599167E-5,9.624127E-1,9.061163E-2,-8.128997E-2,4.142857E0,4.3214664E2,-1.0205052E-1,6.747324E-1,4E0,7.028973E1,1.1014781E-1,3.362412E-3,-6.9176145E-2,-2.7800644E-2,8.660208E-2,6.4537905E-2,-1.1864436E-1,-5.2448746E-2,1.8552337E-2],"split_indices":[6,9,1,5,5,0,1,7,0,0,0,6,0,7,4,6,0,0,0,0,0,0,0,0,0],"split_type":[0,0,0,0,0,0,0,0,0,0,0,0,0,0,0,0,0,0,0,0,0,0,0,0,0],"sum_hessian":[8.937174E1,6.8806145E1,2.0565594E1,2.130635E1,4.7499794E1,1.7032036E0,1.8862389E1,7.6006966E0,1.3705654E1,2.5747044E0,4.492509E1,3.1480923E0,1.5714297E1,5.1773157E0,2.423381E0,4.1876633E1,3.0484586E0,1.101274E0,2.0468183E0,1.2021072E0,3.9752083E0,1.0045679E0,1.4188132E0,9.246011E0,3.2630623E1],"tree_param":{"num_deleted":"0","num_feature":"13","num_nodes":"25","size_leaf_vector":"1"}},{"base_weights":[-8.605088E-3,2.0885216E-1,-9.6391276E-2,4.3943015E-1,-1.4343111E-1,6.1594576E-1,-2.168008E-1,1.9127543E-1,-8.495804E-1,3.4080264E-1,9.032329E-1,-7.3601955E-1,5.539631E-1,-1.8920872E-1,9.419012E-2,-1.1442417E-1,-3.9662084E-1,-4.779112E-2,7.356655E-2,1.0445386E-1,-2.708644E-2,-9.752122E-2,2.1998757E-2,-1.3586066E-2,8.910975E-2,-5.4879274E-2,6.355826E-2,6.327316E-2,-8.595372E-2],"categories":[],"categories_nodes":[],"categories_segments":[],"categories_sizes":[],"default_left":[0,0,0,0,0,0,0,0,0,0,0,0,0,0,0,0,0,0,0,0,0,0,0,0,0,0,0,0,0],"id":30,"left_children":[1,3,-1,5,7,9,11,13,15,17,19,21,23,25,-1,-1,27,-1,-1,-1,-1,-1,-1,-1,-1,-1,-1,-1,-1],"loss_changes":[1.826823E1,5.88431E0,0E0,5.179405E0,7.0414257E0,2.4261599E0,4.398935E0,6.050638E0,8.198509E-1,6.582213E0,2.9896078E0,1.6753669E0,1.1873136E0,4.642653E0,0E0,0E0,3.06535E0,0E0,0E0,0E0,0E0,0E0,0E0,0E0,0E0,0E0,0E0,0E0,0E0],"parents":[2147483647,0,0,1,1,3,3,4,4,5,5,6,6,7,7,8,8,9,9,10,10,11,11,12,12,13,13,16,16],"right_children":[2,4,-1,6,8,10,12,14,16,18,20,22,24,26,-1,-1,28,-1,-1,-1,-1,-1,-1,-1,-1,-1,-1,-1,-1],"split_conditions":[4.3028546E2,6E0,-9.6391276E-2,1.3636364E-1,4.21775E0,1.3941314E1,2.777778E-1,4.0418053E0,3.404653E2,1.3636364E-1,1.2073501E0,3.857143E0,3E0,4.142857E0,9.419012E-2,-1.1442417E-1,3.41845E2,-4.779112E-2,7.356655E-2,1.0445386E-1,-2.708644E-2,-9.752122E-2,2.1998757E-2,-1.3586066E-2,8.910975E-2,-5.4879274E-2,6.355826E-2,6.327316E-2,-8.595372E-2],"split_indices":[6,9,0,12,5,5,12,5,6,2,7,0,4,0,0,0,6,0,0,0,0,0,0,0,0,0,0,0,0],"split_type":[0,0,0,0,0,0,0,0,0,0,0,0,0,0,0,0,0,0,0,0,0,0,0,0,0,0,0,0,0],"sum_hessian":[8.596948E1,7.0665276E1,1.5304202E1,4.2560814E1,2.8104465E1,3.3587658E1,8.973153E0,1.9561615E1,8.54285E0,1.8273184E1,1.5314475E1,5.388388E0,3.5847652E0,1.3477797E1,6.083819E0,4.251197E0,4.2916527E0,5.877135E0,1.23960495E1,1.3767828E1,1.5466471E0,4.2939534E0,1.0944346E0,1.3728127E0,2.2119524E0,9.618883E0,3.8589137E0,1.217516E0,3.0741367E0],"tree_param":{"num_deleted":"0","num_feature":"13","num_nodes":"29","size_leaf_vector":"1"}},{"base_weights":[-8.290025E-3,2.2918305E-1,-8.4612536E-1,6.524615E-1,4.253191E-2,1.5653469E-2,-9.465009E-1,8.299158E-1,8.536359E-2,-1.734065E-1,3.2067004E-1,-4.6155643E-1,-1.008116E-1,2.5316563E-1,9.7343415E-2,4.6083194E-1,-8.6126916E-2,-4.8006523E-1,3.1253886E-1,-1.386857E-1,7.904057E-1,2.9737118E-3,-6.523805E-2,7.277635E-2,-6.4008474E-2,7.6448426E-2,-3.3757273E-2,-3.832085E-3,-1.2608221E-1,8.151931E-2,-8.739247E-2,3.255714E-2,-1.0006546E-1,-1.9695496E-2,9.352466E-2],"categories":[],"categories_nodes":[],"categories_segments":[],"categories_sizes":[],"default_left":[0,0,0,0,0,0,0,0,0,0,0,0,0,0,0,0,0,0,0,0,0,0,0,0,0,0,0,0,0,0,0,0,0,0,0],"id":31,"left_children":[1,3,5,7,9,-1,11,13,15,17,19,21,-1,23,-1,25,-1,27,29,31,33,-1,-1,-1,-1,-1,-1,-1,-1,-1,-1,-1,-1,-1,-1],"loss_changes":[1.6679653E1,5.134975E0,2.0112228E0,1.9345531E0,2.843554E0,0E0,4.1731834E-2,1.0004292E0,2.481197E0,4.140823E0,4.562914E0,3.7166262E-1,0E0,2.3112147E0,0E0,1.43394E0,0E0,5.750511E0,7.2529187E0,4.8418746E0,1.6648221E0,0E0,0E0,0E0,0E0,0E0,0E0,0E0,0E0,0E0,0E0,0E0,0E0,0E0,0E0],"parents":[2147483647,0,0,1,1,2,2,3,3,4,4,6,6,7,7,8,8,9,9,10,10,11,11,13,13,15,15,17,17,18,18,19,19,20,20],"right_children":[2,4,6,8,10,-1,12,14,16,18,20,22,-1,24,-1,26,-1,28,30,32,34,-1,-1,-1,-1,-1,-1,-1,-1,-1,-1,-1,-1,-1,-1],"split_conditions":[3.6494672E2,1E0,3.245611E-5,2.9E1,1.764706E-1,1.5653469E-2,4.1599167E-5,8.083342E0,9.166759E-1,3.3451965E2,7.028973E1,4.3214664E2,-1.008116E-1,9.624127E-1,9.7343415E-2,1.03E2,-8.6126916E-2,4.223827E0,1.5465232E-2,6.920212E1,8.972973E0,2.9737118E-3,-6.523805E-2,7.277635E-2,-6.4008474E-2,7.6448426E-2,-3.3757273E-2,-3.832085E-3,-1.2608221E-1,8.151931E-2,-8.739247E-2,3.255714E-2,-1.0006546E-1,-1.9695496E-2,9.352466E-2],"split_indices":[6,9,1,4,2,0,1,5,7,6,6,6,0,7,0,4,0,5,1,6,10,0,0,0,0,0,0,0,0,0,0,0,0,0,0],"split_type":[0,0,0,0,0,0,0,0,0,0,0,0,0,0,0,0,0,0,0,0,0,0,0,0,0,0,0,0,0,0,0,0,0,0,0],"sum_hessian":[8.185816E1,6.434648E1,1.751168E1,1.8927649E1,4.5418835E1,1.5426382E0,1.5969042E1,1.4063503E1,4.8641453E0,2.5780298E1,1.9638535E1,2.757443E0,1.3211599E1,3.3529916E0,1.0710511E1,3.8502047E0,1.0139407E0,1.5813313E1,9.966986E0,1.0285286E1,9.35325E0,1.0075587E0,1.7498842E0,2.3105984E0,1.0423932E0,2.8201282E0,1.0300765E0,1.0769258E1,5.044056E0,7.2207727E0,2.7462132E0,7.0892844E0,3.1960008E0,1.1505189E0,8.20273E0],"tree_param":{"num_deleted":"0","num_feature":"13","num_nodes":"35","size_leaf_vector":"1"}},{"base_weights":[-1.0516031E-2,2.1298347E-1,-8.2908463E-1,6.2947416E-1,3.61946E-2,1.473736E-2,-9.3395007E-1,8.1269366E-1,7.261588E-2,-8.014255E-2,1.0343858E-1,-4.453822E-1,-9.990297E-2,9.094478E-1,3.023774E-3,4.475961E-1,-8.407838E-2,9.542763E-1,-8.979413E-3,2.824355E-3,-6.365299E-2,2.5659412E-2,9.471672E-2,7.559775E-2,-3.5074316E-2,1.0666273E-1,2.581429E-2,1.619873E-2,-6.1041098E-2],"categories":[],"categories_nodes":[],"categories_segments":[],"categories_sizes":[],"default_left":[0,0,0,0,0,0,0,0,0,0,0,0,0,0,0,0,0,0,0,0,0,0,0,0,0,0,0,0,0],"id":32,"left_children":[1,3,5,7,9,-1,11,13,15,-1,17,19,-1,21,-1,23,-1,25,27,-1,-1,-1,-1,-1,-1,-1,-1,-1,-1],"loss_changes":[1.4721283E1,4.6340456E0,1.9045506E0,1.8575964E0,2.6434455E0,0E0,5.4828644E-2,1.0351486E0,2.3453178E0,0E0,4.118402E0,3.486119E-1,0E0,6.373024E-2,0E0,1.429198E0,0E0,1.17584705E-1,4.1032596E0,0E0,0E0,0E0,0E0,0E0,0E0,0E0,0E0,0E0,0E0],"parents":[2147483647,0,0,1,1,2,2,3,3,4,4,6,6,7,7,8,8,10,10,11,11,13,13,15,15,17,17,18,18],"right_children":[2,4,6,8,10,-1,12,14,16,-1,18,20,-1,22,-1,24,-1,26,28,-1,-1,-1,-1,-1,-1,-1,-1,-1,-1],"split_conditions":[3.6494672E2,1E0,3.245611E-5,2.9E1,9.8864335E-1,1.473736E-2,4.1599167E-5,4.6255507E-2,9.1829586E-1,-8.014255E-2,2.604299E1,4.3214664E2,-9.990297E-2,4.9857965E0,3.023774E-3,1.04E2,-8.407838E-2,6.859315E-1,2.7142856E0,2.824355E-3,-6.365299E-2,2.5659412E-2,9.471672E-2,7.559775E-2,-3.5074316E-2,1.0666273E-1,2.581429E-2,1.619873E-2,-6.1041098E-2],"split_indices":[6,9,1,4,5,0,1,12,7,0,6,6,0,5,0,4,0,7,0,0,0,0,0,0,0,0,0,0,0],"split_type":[0,0,0,0,0,0,0,0,0,0,0,0,0,0,0,0,0,0,0,0,0,0,0,0,0,0,0,0,0],"sum_hessian":[7.850111E1,6.2245575E1,1.6255535E1,1.7785275E1,4.44603E1,1.5371302E0,1.4718404E1,1.3036525E1,4.74875E0,2.4926465E0,4.1967655E1,2.652103E0,1.2066301E1,1.1457459E1,1.5790651E0,3.7281785E0,1.0205716E0,4.023917E0,3.7943737E1,1.007633E0,1.6444701E0,1.0519989E0,1.040546E1,2.72762E0,1.0005589E0,3.0064769E0,1.0174402E0,3.0114004E1,7.829732E0],"tree_param":{"num_deleted":"0","num_feature":"13","num_nodes":"29","size_leaf_vector":"1"}},{"base_weights":[-1.0626248E-2,1.732488E-1,-9.4129875E-2,3.804656E-1,-1.3003309E-1,5.5401874E-1,-2.1434171E-1,1.7991783E-1,-7.9379857E-1,2.7837524E-1,8.6570776E-1,-6.9720274E-1,5.1739347E-1,-1.7008473E-1,9.152611E-2,-1.08617924E-1,-3.5097858E-1,-3.5643637E-2,7.192437E-2,1.01021744E-1,-2.5138399E-2,-9.1323726E-2,1.814016E-2,-1.2254933E-2,8.322545E-2,-7.771049E-2,3.312446E-2,5.5540442E-2,-8.1790194E-2],"categories":[],"categories_nodes":[],"categories_segments":[],"categories_sizes":[],"default_left":[0,0,0,0,0,0,0,0,0,0,0,0,0,0,0,0,0,0,0,0,0,0,0,0,0,0,0,0,0],"id":33,"left_children":[1,3,-1,5,7,9,11,13,15,17,19,21,23,25,-1,-1,27,-1,-1,-1,-1,-1,-1,-1,-1,-1,-1,-1,-1],"loss_changes":[1.3312208E1,4.134796E0,0E0,4.1317635E0,5.724812E0,2.3684616E0,3.7179453E0,5.1256886E0,7.608938E-1,5.1798697E0,2.4785109E0,1.3330474E0,9.787742E-1,4.4955206E0,0E0,0E0,2.5642052E0,0E0,0E0,0E0,0E0,0E0,0E0,0E0,0E0,0E0,0E0,0E0,0E0],"parents":[2147483647,0,0,1,1,3,3,4,4,5,5,6,6,7,7,8,8,9,9,10,10,11,11,12,12,13,13,16,16],"right_children":[2,4,-1,6,8,10,12,14,16,18,20,22,24,26,-1,-1,28,-1,-1,-1,-1,-1,-1,-1,-1,-1,-1,-1,-1],"split_conditions":[4.3028546E2,6E0,-9.4129875E-2,1.3636364E-1,4.21775E0,1.3941314E1,2.777778E-1,4.0418053E0,3.404653E2,1.6666667E-1,1.2073501E0,3.857143E0,3E0,1.764706E-1,9.152611E-2,-1.08617924E-1,3.41845E2,-3.5643637E-2,7.192437E-2,1.01021744E-1,-2.5138399E-2,-9.1323726E-2,1.814016E-2,-1.2254933E-2,8.322545E-2,-7.771049E-2,3.312446E-2,5.5540442E-2,-8.1790194E-2],"split_indices":[6,9,0,12,5,5,12,5,6,2,7,0,4,2,0,0,6,0,0,0,0,0,0,0,0,0,0,0,0],"split_type":[0,0,0,0,0,0,0,0,0,0,0,0,0,0,0,0,0,0,0,0,0,0,0,0,0,0,0,0,0],"sum_hessian":[7.5838234E1,6.4006226E1,1.1832006E1,3.787423E1,2.6131994E1,2.9372486E1,8.501743E0,1.8310633E1,7.8213615E0,1.659221E1,1.2780275E1,5.1503186E0,3.3514252E0,1.2926626E1,5.384007E0,3.835818E0,3.9855435E0,6.878825E0,9.713386E0,1.1401076E1,1.3791995E0,4.1022296E0,1.048089E0,1.3065981E0,2.0448272E0,5.5981636E0,7.3284626E0,1.2906531E0,2.6948903E0],"tree_param":{"num_deleted":"0","num_feature":"13","num_nodes":"29","size_leaf_vector":"1"}},{"base_weights":[-1.0838922E-2,1.8963318E-1,-8.1133264E-1,5.865621E-1,3.0982185E-2,1.3126189E-2,-9.18445E-1,7.8536695E-1,1.9924281E-2,-4.04046E-1,1.5585361E-1,-4.1778764E-1,-9.85735E-2,1.9759336E-1,9.4971016E-2,-8.5459255E-2,4.3045795E-1,3.1738904E-1,-8.459235E-1,8.078954E-1,4.0272004E-3,-2.5046677E-3,-5.7988275E-2,6.8380624E-2,-5.911332E-2,-3.189518E-2,7.578968E-2,8.2368426E-2,-5.895361E-2,-3.5938197E-3,-1.0570369E-1,1.2233039E-1,1.9489085E-2,-8.003362E-2,1.5155627E-2],"categories":[],"categories_nodes":[],"categories_segments":[],"categories_sizes":[],"default_left":[0,0,0,0,0,0,0,0,0,0,0,0,0,0,0,0,0,0,0,0,0,0,0,0,0,0,0,0,0,0,0,0,0,0,0],"id":34,"left_children":[1,3,5,7,9,-1,11,13,15,17,19,21,-1,23,-1,-1,25,27,29,31,33,-1,-1,-1,-1,-1,-1,-1,-1,-1,-1,-1,-1,-1,-1],"loss_changes":[1.1952724E1,3.7356055E0,1.626399E0,1.8955989E0,2.433772E0,0E0,4.3577194E-2,1.0230474E0,2.3182628E0,3.460115E0,3.425134E0,1.9792634E-1,0E0,1.938715E0,0E0,0E0,1.3121213E0,2.5656862E0,1.0703783E0,1.4259052E0,3.5739586E0,0E0,0E0,0E0,0E0,0E0,0E0,0E0,0E0,0E0,0E0,0E0,0E0,0E0,0E0],"parents":[2147483647,0,0,1,1,2,2,3,3,4,4,6,6,7,7,8,8,9,9,10,10,11,11,13,13,16,16,17,17,18,18,19,19,20,20],"right_children":[2,4,6,8,10,-1,12,14,16,18,20,22,-1,24,-1,-1,26,28,30,32,34,-1,-1,-1,-1,-1,-1,-1,-1,-1,-1,-1,-1,-1,-1],"split_conditions":[3.6494672E2,1E0,3.245611E-5,2.9E1,2.7237354E-2,1.3126189E-2,4.1599167E-5,8.083342E0,3.7383176E-2,1.8217777E-5,1.4545454E-1,4.3226126E2,-9.85735E-2,9.624127E-1,9.4971016E-2,-8.5459255E-2,5.263158E-1,5.490196E-2,4.223806E0,1.2195122E-1,1.4285715E-1,-2.5046677E-3,-5.7988275E-2,6.8380624E-2,-5.911332E-2,-3.189518E-2,7.578968E-2,8.2368426E-2,-5.895361E-2,-3.5938197E-3,-1.0570369E-1,1.2233039E-1,1.9489085E-2,-8.003362E-2,1.5155627E-2],"split_indices":[6,9,1,4,12,0,1,5,12,1,12,6,0,7,0,0,2,2,5,2,0,0,0,0,0,0,0,0,0,0,0,0,0,0,0],"split_type":[0,0,0,0,0,0,0,0,0,0,0,0,0,0,0,0,0,0,0,0,0,0,0,0,0,0,0,0,0,0,0,0,0,0,0],"sum_hessian":[7.252389E1,5.8609173E1,1.3914717E1,1.5966187E1,4.2642986E1,1.396855E0,1.2517861E1,1.1533608E1,4.432578E0,9.011823E0,3.3631165E1,2.3371947E0,1.0180667E1,3.0014043E0,8.532205E0,1.0705134E0,3.3620648E0,3.5301003E0,5.4817224E0,5.5357704E0,2.8095394E1,1.0201024E0,1.3170923E0,1.9390785E0,1.0623258E0,1.0301889E0,2.3318758E0,2.3243208E0,1.2057794E0,1.3752997E0,4.106423E0,2.7062604E0,2.82951E0,3.6685658E0,2.4426828E1],"tree_param":{"num_deleted":"0","num_feature":"13","num_nodes":"35","size_leaf_vector":"1"}},{"base_weights":[-1.1467406E-2,1.5309335E-1,-9.249989E-2,5.0905806E-1,2.1093986E-3,6.6589385E-1,1.2069186E-2,-2.0560393E-1,2.7673313E-1,7.7875143E-1,-2.3539243E-2,-7.816536E-2,4.1091737E-1,3.6998317E-2,-6.9856757E-1,-8.686579E-2,8.068501E-1,1.8630808E-2,9.379571E-2,-3.2698836E-2,7.431283E-2,2.580683E-2,-7.5244054E-2,8.120845E-3,-1.2358967E-1,2.9398957E-2,-6.1488666E-2,-2.1521376E-2,1.00261785E-1],"categories":[],"categories_nodes":[],"categories_segments":[],"categories_sizes":[],"default_left":[0,0,0,0,0,0,0,0,0,0,0,0,0,0,0,0,0,0,0,0,0,0,0,0,0,0,0,0,0],"id":35,"left_children":[1,3,-1,5,7,9,11,13,15,17,-1,-1,19,21,23,25,27,-1,-1,-1,-1,-1,-1,-1,-1,-1,-1,-1,-1],"loss_changes":[1.0814704E1,3.2783365E0,0E0,1.4081402E0,2.5581908E0,1.5862021E0,2.0233178E0,3.0802517E0,3.7919893E0,1.003252E0,0E0,0E0,1.2808988E0,3.3470848E0,3.6508374E0,2.665642E0,1.8070817E0,0E0,0E0,0E0,0E0,0E0,0E0,0E0,0E0,0E0,0E0,0E0,0E0],"parents":[2147483647,0,0,1,1,3,3,4,4,5,5,6,6,7,7,8,8,9,9,12,12,13,13,14,14,15,15,16,16],"right_children":[2,4,-1,6,8,10,12,14,16,18,-1,-1,20,22,24,26,28,-1,-1,-1,-1,-1,-1,-1,-1,-1,-1,-1,-1],"split_conditions":[4.3028546E2,1E0,-9.249989E-2,2.9E1,1.764706E-1,1.2073501E0,3.7383176E-2,1.2195122E-1,2.9328816E0,8.083342E0,-2.3539243E-2,-7.816536E-2,5.1724136E-1,9.997615E-1,3E0,6.920212E1,8.972973E0,1.8630808E-2,9.379571E-2,-3.2698836E-2,7.431283E-2,2.580683E-2,-7.5244054E-2,8.120845E-3,-1.2358967E-1,2.9398957E-2,-6.1488666E-2,-2.1521376E-2,1.00261785E-1],"split_indices":[6,9,0,4,2,7,12,2,5,5,0,0,2,7,4,6,10,0,0,0,0,0,0,0,0,0,0,0,0],"split_type":[0,0,0,0,0,0,0,0,0,0,0,0,0,0,0,0,0,0,0,0,0,0,0,0,0,0,0,0,0],"sum_hessian":[6.999707E1,6.0018024E1,9.979047E0,1.7168772E1,4.2849255E1,1.2792088E1,4.376683E0,2.4539772E1,1.830948E1,1.1489364E1,1.302724E0,1.1427636E0,3.2339194E0,1.7066017E1,7.473754E0,1.1356425E1,6.953056E0,2.8932195E0,8.596145E0,1.0088301E0,2.2250893E0,1.3858314E1,3.2077045E0,3.3953145E0,4.078439E0,6.8551254E0,4.5013E0,1.101744E0,5.8513117E0],"tree_param":{"num_deleted":"0","num_feature":"13","num_nodes":"29","size_leaf_vector":"1"}},{"base_weights":[-1.282025E-2,1.6629054E-1,-7.923314E-1,-7.91085E-2,2.2343212E-1,1.1850521E-2,-9.015969E-1,4.8537128E-2,5.86221E-1,-3.9061263E-1,-9.711272E-2,-2.0757939E-1,4.9602392E-1,9.851851E-2,3.1263265E-1,-5.5232397E-3,-5.2642703E-2,1.4670773E-2,-9.2880525E-2,8.3430044E-2,-8.177603E-2,-5.887077E-2,5.5194117E-2],"categories":[],"categories_nodes":[],"categories_segments":[],"categories_sizes":[],"default_left":[0,0,0,0,0,0,0,0,0,0,0,0,0,0,0,0,0,0,0,0,0,0,0],"id":36,"left_children":[1,3,5,-1,7,-1,9,11,13,15,-1,17,19,-1,21,-1,-1,-1,-1,-1,-1,-1,-1],"loss_changes":[9.710654E0,3.2739456E0,1.399869E0,0E0,3.4109292E0,0E0,3.695011E-2,4.419655E0,1.6067038E0,1.1104497E-1,0E0,6.4372544E0,6.906478E0,0E0,2.8854246E0,0E0,0E0,0E0,0E0,0E0,0E0,0E0,0E0],"parents":[2147483647,0,0,1,1,2,2,4,4,6,6,7,7,8,8,9,9,11,11,12,12,14,14],"right_children":[2,4,6,-1,8,-1,10,12,14,16,-1,18,20,-1,22,-1,-1,-1,-1,-1,-1,-1,-1],"split_conditions":[3.6494672E2,9.8864335E-1,3.245611E-5,-7.91085E-2,2.3809524E-1,1.1850521E-2,4.1599167E-5,3.3451965E2,3.1428573E-1,4.3232172E2,-9.711272E-2,5.9670157E0,1.5465232E-2,9.851851E-2,7.028973E1,-5.5232397E-3,-5.2642703E-2,1.4670773E-2,-9.2880525E-2,8.3430044E-2,-8.177603E-2,-5.887077E-2,5.5194117E-2],"split_indices":[6,5,1,0,2,0,1,6,2,6,0,5,1,0,6,0,0,0,0,0,0,0,0],"split_type":[0,0,0,0,0,0,0,0,0,0,0,0,0,0,0,0,0,0,0,0,0,0,0],"sum_hessian":[6.7607475E1,5.5615253E1,1.1992224E1,2.4090283E0,5.3206226E1,1.2754573E0,1.0716766E1,3.6664577E1,1.6541649E1,2.076233E0,8.640533E0,2.3659386E1,1.3005193E1,5.67094E0,1.0870708E1,1.0038931E0,1.0723397E0,1.6399876E1,7.25951E0,1.0632479E1,2.3727136E0,1.974362E0,8.896346E0],"tree_param":{"num_deleted":"0","num_feature":"13","num_nodes":"23","size_leaf_vector":"1"}},{"base_weights":[-1.510928E-2,1.3044015E-1,-9.076658E-2,4.7736496E-1,-1.1293115E-2,6.420389E-1,-1.3202715E-2,1.5873124E-1,-3.0011725E-1,7.54281E-1,-2.1781353E-2,-7.570964E-2,3.8871655E-1,-1.0887036E-1,9.23264E-2,3.1009847E-2,-1.0660513E-1,1.6711157E-2,9.259492E-2,-2.6750034E-2,7.1126625E-2,-1.2256696E-1,7.8080753E-3,-7.5525604E-2,5.7915904E-2],"categories":[],"categories_nodes":[],"categories_segments":[],"categories_sizes":[],"default_left":[0,0,0,0,0,0,0,0,0,0,0,0,0,0,0,0,0,0,0,0,0,0,0,0,0],"id":37,"left_children":[1,3,-1,5,7,9,11,13,15,17,-1,-1,19,21,-1,23,-1,-1,-1,-1,-1,-1,-1,-1,-1],"loss_changes":[8.754051E0,2.8586676E0,0E0,1.3699942E0,2.1186836E0,1.3840384E0,1.8536612E0,5.665509E0,4.0842404E0,9.94679E-1,0E0,0E0,1.0468231E0,4.489178E0,0E0,5.6626716E0,0E0,0E0,0E0,0E0,0E0,0E0,0E0,0E0,0E0],"parents":[2147483647,0,0,1,1,3,3,4,4,5,5,6,6,7,7,8,8,9,9,12,12,13,13,15,15],"right_children":[2,4,-1,6,8,10,12,14,16,18,-1,-1,20,22,-1,24,-1,-1,-1,-1,-1,-1,-1,-1,-1],"split_conditions":[4.3028546E2,1E0,-9.076658E-2,2.9E1,4.2178073E0,1.2073501E0,3.7383176E-2,4.059252E0,1.7910448E-1,8.083342E0,-2.1781353E-2,-7.570964E-2,5.1724136E-1,4.708222E-4,9.23264E-2,3.3451965E2,-1.0660513E-1,1.6711157E-2,9.259492E-2,-2.6750034E-2,7.1126625E-2,-1.2256696E-1,7.8080753E-3,-7.5525604E-2,5.7915904E-2],"split_indices":[6,9,0,4,5,7,12,5,12,5,0,0,2,1,0,6,0,0,0,0,0,0,0,0,0],"split_type":[0,0,0,0,0,0,0,0,0,0,0,0,0,0,0,0,0,0,0,0,0,0,0,0,0],"sum_hessian":[6.547358E1,5.702788E1,8.445694E0,1.5853858E1,4.1174023E1,1.1638331E1,4.215526E0,2.6200686E1,1.4973338E1,1.0403123E1,1.2352086E0,1.168711E0,3.0468154E0,2.004288E1,6.1578054E0,1.1123822E1,3.849516E0,2.7998943E0,7.6032286E0,1.0603127E0,1.9865026E0,2.07733E0,1.796555E1,4.414224E0,6.709598E0],"tree_param":{"num_deleted":"0","num_feature":"13","num_nodes":"25","size_leaf_vector":"1"}},{"base_weights":[-1.6755408E-2,1.19680524E-1,-8.977325E-2,-7.721185E-2,1.7134963E-1,6.1112978E-3,5.438263E-1,-4.9726045E-1,1.7099029E-1,1.0860141E-1,3.2927403E-1,7.1548335E-2,-8.875481E-2,6.793208E-2,-4.3403967E-3,-8.8588715E-2,6.491633E-2],"categories":[],"categories_nodes":[],"categories_segments":[],"categories_sizes":[],"default_left":[0,0,0,0,0,0,0,0,0,0,0,0,0,0,0,0,0],"id":38,"left_children":[1,3,-1,-1,5,7,9,11,13,-1,15,-1,-1,-1,-1,-1,-1],"loss_changes":[7.8294086E0,2.7362623E0,0E0,0E0,3.3347E0,3.2869973E0,1.5798283E0,5.2616377E0,3.2777557E0,0E0,5.771451E0,0E0,0E0,0E0,0E0,0E0,0E0],"parents":[2147483647,0,0,1,1,4,4,5,5,6,6,7,7,8,8,10,10],"right_children":[2,4,-1,-1,6,8,10,12,14,-1,16,-1,-1,-1,-1,-1,-1],"split_conditions":[4.3028546E2,9.8864335E-1,-8.977325E-2,-7.721185E-2,2.3809524E-1,9.6976204E1,6.920212E1,2.604299E1,5.9670157E0,1.0860141E-1,7.028973E1,7.1548335E-2,-8.875481E-2,6.793208E-2,-4.3403967E-3,-8.8588715E-2,6.491633E-2],"split_indices":[6,5,0,0,2,6,6,6,5,0,6,0,0,0,0,0,0],"split_type":[0,0,0,0,0,0,0,0,0,0,0,0,0,0,0,0,0],"sum_hessian":[6.32443E1,5.551145E1,7.732846E0,2.276471E0,5.323498E1,3.758009E1,1.5654894E1,8.774829E0,2.880526E1,3.286903E0,1.2367991E1,1.9335314E0,6.841297E0,7.9017024E0,2.0903557E1,2.20865E0,1.0159341E1],"tree_param":{"num_deleted":"0","num_feature":"13","num_nodes":"17","size_leaf_vector":"1"}},{"base_weights":[-1.6336113E-2,1.1184592E-1,-8.873989E-2,-7.5165294E-2,1.6093852E-1,6.948371E-3,5.1798534E-1,-4.6124205E-1,1.5827996E-1,1.0431226E-1,3.0823937E-1,6.7887515E-2,-8.318494E-2,7.382254E-2,-9.399093E-4,-8.554761E-2,6.1631452E-2],"categories":[],"categories_nodes":[],"categories_segments":[],"categories_sizes":[],"default_left":[0,0,0,0,0,0,0,0,0,0,0,0,0,0,0,0,0],"id":39,"left_children":[1,3,-1,-1,5,7,9,11,13,-1,15,-1,-1,-1,-1,-1,-1],"loss_changes":[7.0394526E0,2.455562E0,0E0,0E0,2.9067662E0,2.765141E0,1.4338284E0,4.5944357E0,2.8717318E0,0E0,5.118923E0,0E0,0E0,0E0,0E0,0E0,0E0],"parents":[2147483647,0,0,1,1,4,4,5,5,6,6,7,7,8,8,10,10],"right_children":[2,4,-1,-1,6,8,10,12,14,-1,16,-1,-1,-1,-1,-1,-1],"split_conditions":[4.3028546E2,9.8864335E-1,-8.873989E-2,-7.5165294E-2,2.3809524E-1,9.6976204E1,6.920212E1,2.604299E1,4.2178073E0,1.0431226E-1,7.028973E1,6.7887515E-2,-8.318494E-2,7.382254E-2,-9.399093E-4,-8.554761E-2,6.1631452E-2],"split_indices":[6,5,0,0,2,6,6,6,5,0,6,0,0,0,0,0,0],"split_type":[0,0,0,0,0,0,0,0,0,0,0,0,0,0,0,0,0],"sum_hessian":[6.1157764E1,5.4072304E1,7.085461E0,2.1389523E0,5.193335E1,3.699661E1,1.4936744E1,8.536976E0,2.8459631E1,3.1291308E0,1.1807613E1,1.8902178E0,6.6467586E0,5.6198497E0,2.283978E1,2.0996406E0,9.707973E0],"tree_param":{"num_deleted":"0","num_feature":"13","num_nodes":"17","size_leaf_vector":"1"}},{"base_weights":[-1.5760547E-2,1.2749094E-1,-7.3910636E-1,3.097994E-1,-1.2081022E-1,1.4896817E-2,-8.6369973E-1,7.47254E-1,7.6889895E-2,-9.3990356E-2,8.61969E-2,-3.056292E-2,-9.452678E-2,1.0243988E-1,-6.202833E-2,2.5813544E-1,-1.09909534E-1,-1.7525706E-1,5.126738E-1,-3.2205455E-2,4.4381235E-2,3.5956796E-2,-5.8579743E-2,-1.1569883E-2,8.489622E-2],"categories":[],"categories_nodes":[],"categories_segments":[],"categories_sizes":[],"default_left":[0,0,0,0,0,0,0,0,0,0,0,0,0,0,0,0,0,0,0,0,0,0,0,0,0],"id":40,"left_children":[1,3,5,7,9,-1,11,13,15,-1,17,-1,-1,-1,-1,19,-1,21,23,-1,-1,-1,-1,-1,-1],"loss_changes":[6.336533E0,2.3522534E0,1.2468009E0,2.975462E0,3.8739226E0,0E0,1.2120056E-1,4.5117383E0,4.661606E0,0E0,2.1830618E0,0E0,0E0,0E0,0E0,2.1473906E0,0E0,2.9295578E0,1.6597136E0,0E0,0E0,0E0,0E0,0E0,0E0],"parents":[2147483647,0,0,1,1,2,2,3,3,4,4,6,6,7,7,8,8,10,10,15,15,17,17,18,18],"right_children":[2,4,6,8,10,-1,12,14,16,-1,18,-1,-1,-1,-1,20,-1,22,24,-1,-1,-1,-1,-1,-1],"split_conditions":[3.6494672E2,6E0,3.245611E-5,7.8125E-2,1.3043478E-1,1.4896817E-2,4.1599167E-5,4.761905E-2,9.774178E-1,-9.3990356E-2,4.0418053E0,-3.056292E-2,-9.452678E-2,1.0243988E-1,-6.202833E-2,7.028973E1,-1.09909534E-1,6.920212E1,1.4285715E-1,-3.2205455E-2,4.4381235E-2,3.5956796E-2,-5.8579743E-2,-1.1569883E-2,8.489622E-2],"split_indices":[6,9,1,2,12,0,1,12,7,0,5,0,0,0,0,6,0,6,0,0,0,0,0,0,0],"split_type":[0,0,0,0,0,0,0,0,0,0,0,0,0,0,0,0,0,0,0,0,0,0,0,0,0],"sum_hessian":[5.9242058E1,5.0136723E1,9.105333E0,2.8767374E1,2.136935E1,1.0962025E0,8.0091305E0,9.227598E0,1.9539776E1,3.5968323E0,1.7772518E1,1.6266791E0,6.3824515E0,7.8812933E0,1.3463045E0,1.7606688E1,1.9330889E0,1.1383103E1,6.3894143E0,4.0904984E0,1.3516189E1,4.997217E0,6.3858867E0,2.4560704E0,3.933344E0],"tree_param":{"num_deleted":"0","num_feature":"13","num_nodes":"25","size_leaf_vector":"1"}},{"base_weights":[-1.8044846E-2,9.7097285E-2,-8.672377E-2,1.4701514E-1,-7.125702E-2,-7.344256E-2,1.9973579E-1,-5.1205033E-1,2.6995108E-1,-8.563852E-2,1.1225961E-3,8.508416E-2,2.024342E-2],"categories":[],"categories_nodes":[],"categories_segments":[],"categories_sizes":[],"default_left":[0,0,0,0,0,0,0,0,0,0,0,0,0],"id":41,"left_children":[1,3,-1,5,-1,-1,7,9,11,-1,-1,-1,-1],"loss_changes":[5.7628946E0,2.2081435E0,0E0,2.463182E0,0E0,0E0,2.528286E0,8.454969E-1,1.5606081E0,0E0,0E0,0E0,0E0],"parents":[2147483647,0,0,1,1,3,3,6,6,7,7,8,8],"right_children":[2,4,-1,6,-1,-1,8,10,12,-1,-1,-1,-1],"split_conditions":[4.3028546E2,9.44399E-2,-8.672377E-2,9.8864335E-1,-7.125702E-2,-7.344256E-2,1E0,9.700332E1,2.604299E1,-8.563852E-2,1.1225961E-3,8.508416E-2,2.024342E-2],"split_indices":[6,1,0,5,0,0,8,6,6,0,0,0,0],"split_type":[0,0,0,0,0,0,0,0,0,0,0,0,0],"sum_hessian":[5.707743E1,5.1042263E1,6.035166E0,4.8849033E1,2.1932297E0,2.02711E0,4.6821926E1,3.6390986E0,4.3182827E1,1.8108863E0,1.8282123E0,3.2884362E0,3.989439E1],"tree_param":{"num_deleted":"0","num_feature":"13","num_nodes":"13","size_leaf_vector":"1"}},{"base_weights":[-2.0726707E-2,8.616088E-2,-8.5567914E-2,-7.1501955E-2,1.3156424E-1,-5.1301423E-2,4.11668E-1,1.3565531E-1,-6.7136043E-1,3.8857494E-2,6.8375957E-1,3.4196377E-2,-3.9697595E-2,7.7932337E-3,-1.0860844E-1,5.88202E-2,-5.4424156E-2,8.2704484E-2,-3.8296647E-2],"categories":[],"categories_nodes":[],"categories_segments":[],"categories_sizes":[],"default_left":[0,0,0,0,0,0,0,0,0,0,0,0,0,0,0,0,0,0,0],"id":42,"left_children":[1,3,-1,-1,5,7,9,11,13,15,17,-1,-1,-1,-1,-1,-1,-1,-1],"loss_changes":[5.147755E0,1.9605601E0,0E0,0E0,2.5516262E0,3.659104E0,1.964098E0,2.8258243E0,2.3526442E0,3.311932E0,2.0415015E0,0E0,0E0,0E0,0E0,0E0,0E0,0E0,0E0],"parents":[2147483647,0,0,1,1,4,4,5,5,6,6,7,7,8,8,9,9,10,10],"right_children":[2,4,-1,-1,6,8,10,12,14,16,18,-1,-1,-1,-1,-1,-1,-1,-1],"split_conditions":[4.3028546E2,9.8864335E-1,-8.5567914E-2,-7.1501955E-2,1.764706E-1,1.2195122E-1,2.9328816E0,1.7910448E-1,3E0,6.920212E1,9.5E1,3.4196377E-2,-3.9697595E-2,7.7932337E-3,-1.0860844E-1,5.88202E-2,-5.4424156E-2,8.2704484E-2,-3.8296647E-2],"split_indices":[6,5,0,0,2,2,5,12,4,6,4,0,0,0,0,0,0,0,0],"split_type":[0,0,0,0,0,0,0,0,0,0,0,0,0,0,0,0,0,0,0],"sum_hessian":[5.5854385E1,5.031061E1,5.5437746E0,1.907259E0,4.840335E1,2.9778994E1,1.8624357E1,2.3480505E1,6.298489E0,8.339994E0,1.0284364E1,1.7182888E1,6.297617E0,2.533405E0,3.7650838E0,4.2897854E0,4.0502086E0,9.264607E0,1.0197566E0],"tree_param":{"num_deleted":"0","num_feature":"13","num_nodes":"19","size_leaf_vector":"1"}},{"base_weights":[-2.3091616E-2,7.725891E-2,-8.4369406E-2,1.254705E-1,-6.971054E-2,6.6545256E-4,4.6454328E-1,1.2575483E-1,-1.2709151E-1,7.1703386E-1,-7.976533E-2,-6.961341E-2,1.9369932E-2,9.276529E-2,-3.6838777E-2],"categories":[],"categories_nodes":[],"categories_segments":[],"categories_sizes":[],"default_left":[0,0,0,0,0,0,0,0,0,0,0,0,0,0,0],"id":43,"left_children":[1,3,-1,5,-1,7,9,11,-1,13,-1,-1,-1,-1,-1],"loss_changes":[4.609829E0,1.9575286E0,0E0,2.0310626E0,0E0,5.900189E0,4.68739E0,2.0204723E0,0E0,2.9221797E0,0E0,0E0,0E0,0E0,0E0],"parents":[2147483647,0,0,1,1,3,3,5,5,6,6,7,7,9,9],"right_children":[2,4,-1,6,-1,8,10,12,-1,14,-1,-1,-1,-1,-1],"split_conditions":[4.3028546E2,9.44399E-2,-8.4369406E-2,3.3451965E2,-6.971054E-2,1.3930326E1,1.7910448E-1,9.8864335E-1,-1.2709151E-1,1.2073501E0,-7.976533E-2,-6.961341E-2,1.9369932E-2,9.276529E-2,-3.6838777E-2],"split_indices":[6,1,0,6,0,5,12,5,0,7,0,0,0,0,0],"split_type":[0,0,0,0,0,0,0,0,0,0,0,0,0,0,0],"sum_hessian":[5.418837E1,4.9090946E1,5.097424E0,4.7002556E1,2.08839E0,3.5089035E1,1.1913522E1,3.276677E1,2.3222666E0,1.0287517E1,1.6260053E0,1.7959898E0,3.0970778E1,8.737428E0,1.5500884E0],"tree_param":{"num_deleted":"0","num_feature":"13","num_nodes":"15","size_leaf_vector":"1"}},{"base_weights":[-2.8181331E-2,8.7891325E-2,-6.9907576E-1,-6.777457E-2,1.3178316E-1,-7.806787E-2,-9.2027776E-2,-1.1931399E-2,4.499934E-1,4.773808E-2,-5.5084314E-2,-2.3670137E-1,4.0976423E-1,8.492307E-1,1.6914769E-1,9.951769E-3,-8.577671E-2,7.265195E-2,-7.440258E-2,3.3210482E-2,9.941119E-2,4.8641667E-2,-4.0461805E-2],"categories":[],"categories_nodes":[],"categories_segments":[],"categories_sizes":[],"default_left":[0,0,0,0,0,0,0,0,0,0,0,0,0,0,0,0,0,0,0,0,0,0,0],"id":44,"left_children":[1,3,5,-1,7,9,-1,11,13,-1,-1,15,17,19,21,-1,-1,-1,-1,-1,-1,-1,-1],"loss_changes":[4.242602E0,1.6573817E0,1.0313551E0,0E0,2.0618515E0,1.1038109E0,0E0,3.1255603E0,1.4279456E0,0E0,0E0,4.5699677E0,4.7345285E0,8.488202E-2,1.92199E0,0E0,0E0,0E0,0E0,0E0,0E0,0E0,0E0],"parents":[2147483647,0,0,1,1,2,2,4,4,5,5,7,7,8,8,11,11,12,12,13,13,14,14],"right_children":[2,4,6,-1,8,10,-1,12,14,-1,-1,16,18,20,22,-1,-1,-1,-1,-1,-1,-1,-1],"split_conditions":[3.6494672E2,9.8864335E-1,4.1599167E-5,-6.777457E-2,2.3809524E-1,4.30656E2,-9.2027776E-2,3.3451965E2,3.1428573E-1,4.773808E-2,-5.5084314E-2,5.9670157E0,1.5465232E-2,2.9104042E0,4E0,9.951769E-3,-8.577671E-2,7.265195E-2,-7.440258E-2,3.3210482E-2,9.941119E-2,4.8641667E-2,-4.0461805E-2],"split_indices":[6,5,1,0,2,6,0,6,2,0,0,5,1,5,9,0,0,0,0,0,0,0,0],"split_type":[0,0,0,0,0,0,0,0,0,0,0,0,0,0,0,0,0,0,0,0,0,0,0],"sum_hessian":[5.269237E1,4.5661404E1,7.0309677E0,1.6927235E0,4.3968678E1,2.2019854E0,4.8289824E0,3.0952145E1,1.3016535E1,1.0079893E0,1.1939961E0,2.047654E1,1.0475605E1,4.5395236E0,8.477012E0,1.3829556E1,6.646982E0,8.509713E0,1.965892E0,1.713996E0,2.8255274E0,5.5566497E0,2.9203618E0],"tree_param":{"num_deleted":"0","num_feature":"13","num_nodes":"23","size_leaf_vector":"1"}},{"base_weights":[-2.7982878E-2,8.079984E-2,-6.8452096E-1,-4.7619775E-1,1.3846833E-1,-7.521074E-2,-9.052316E-2,-8.061907E-2,1.4965684E-4,-6.5983705E-2,1.8597831E-1,4.161795E-2,-5.220443E-2,8.050146E-2,1.1551519E-1,2.6876688E-2,-5.1003363E-2],"categories":[],"categories_nodes":[],"categories_segments":[],"categories_sizes":[],"default_left":[0,0,0,0,0,0,0,0,0,0,0,0,0,0,0,0,0],"id":45,"left_children":[1,3,5,7,9,11,-1,-1,-1,-1,13,-1,-1,-1,15,-1,-1],"loss_changes":[3.7975485E0,1.5385113E0,9.4770527E-1,7.1473217E-1,1.7277248E0,8.97739E-1,0E0,0E0,0E0,0E0,1.6832247E0,0E0,0E0,0E0,3.7538335E0,0E0,0E0],"parents":[2147483647,0,0,1,1,2,2,3,3,4,4,5,5,10,10,14,14],"right_children":[2,4,6,8,10,12,-1,-1,-1,-1,14,-1,-1,-1,16,-1,-1],"split_conditions":[3.6494672E2,1E0,4.1599167E-5,9.700332E1,9.8864335E-1,4.3108585E2,-9.052316E-2,-8.061907E-2,1.4965684E-4,-6.5983705E-2,2.604299E1,4.161795E-2,-5.220443E-2,8.050146E-2,2.7142856E0,2.6876688E-2,-5.1003363E-2],"split_indices":[6,8,1,6,5,6,0,0,0,0,6,0,0,0,0,0,0],"split_type":[0,0,0,0,0,0,0,0,0,0,0,0,0,0,0,0,0],"sum_hessian":[5.1397644E1,4.4844265E1,6.553379E0,3.5264208E0,4.1317844E1,2.0991302E0,4.4542484E0,1.6789356E0,1.8474852E0,1.596901E0,3.9720943E1,1.0323933E0,1.0667369E0,2.9939263E0,3.6727016E1,2.9958023E1,6.7689934E0],"tree_param":{"num_deleted":"0","num_feature":"13","num_nodes":"17","size_leaf_vector":"1"}},{"base_weights":[-2.9751731E-2,7.190001E-2,-6.692134E-1,1.14402026E-1,-6.324893E-2,-7.3336795E-2,-8.896625E-2,-8.902904E-3,5.3698814E-1,4.014803E-2,-5.0884802E-2,1.0777324E-1,-1.2077502E-1,8.2427007E-1,-7.567289E-2,-1.0484542E-2,3.3861585E-2,1.5117255E-2,1.139132E-1],"categories":[],"categories_nodes":[],"categories_segments":[],"categories_sizes":[],"default_left":[0,0,0,0,0,0,0,0,0,0,0,0,0,0,0,0,0,0,0],"id":46,"left_children":[1,3,5,7,-1,9,-1,11,13,-1,-1,15,-1,17,-1,-1,-1,-1,-1],"loss_changes":[3.3806977E0,1.4237438E0,8.712313E-1,2.2671435E0,0E0,8.277677E-1,0E0,4.969101E0,4.2747374E0,0E0,0E0,1.6279061E0,0E0,1.6328378E0,0E0,0E0,0E0,0E0,0E0],"parents":[2147483647,0,0,1,1,2,2,3,3,5,5,7,7,8,8,11,11,13,13],"right_children":[2,4,6,8,-1,10,-1,12,14,-1,-1,16,-1,18,-1,-1,-1,-1,-1],"split_conditions":[3.6494672E2,9.44399E-2,4.1599167E-5,3.3451965E2,-6.324893E-2,4.3108585E2,-8.896625E-2,1.3930326E1,1.7910448E-1,4.014803E-2,-5.0884802E-2,4.059252E0,-1.2077502E-1,5.0251256E-3,-7.567289E-2,-1.0484542E-2,3.3861585E-2,1.5117255E-2,1.139132E-1],"split_indices":[6,1,1,6,0,6,0,5,12,0,0,5,0,12,0,0,0,0,0],"split_type":[0,0,0,0,0,0,0,0,0,0,0,0,0,0,0,0,0,0,0],"sum_hessian":[5.026859E1,4.413953E1,6.129059E0,4.2417683E1,1.7218459E0,2.015043E0,4.114016E0,3.359426E1,8.8234215E0,1.0014021E0,1.0136409E0,3.144411E1,2.1501517E0,7.5170555E0,1.3063656E0,1.6652271E1,1.479184E1,2.8673944E0,4.649661E0],"tree_param":{"num_deleted":"0","num_feature":"13","num_nodes":"19","size_leaf_vector":"1"}},{"base_weights":[-3.1616345E-2,4.6950955E-2,-7.938582E-2,-7.5649016E-2,3.2815632E-1,-4.6368384E-1,6.978608E-2,4.141934E-1,-3.979638E-2,3.0227998E-1,-7.55593E-1,6.9030607E-1,-1.04590215E-1,2.2689909E-2,6.8066704E-1,-4.5868605E-3,5.2203562E-2,-9.684381E-2,-1.473994E-2,5.2321516E-3,8.280614E-2,1.9026771E-2,-8.326761E-2,5.334462E-2,-7.9382695E-2,-2.6380083E-2,8.6307734E-2],"categories":[],"categories_nodes":[],"categories_segments":[],"categories_sizes":[],"default_left":[0,0,0,0,0,0,0,0,0,0,0,0,0,0,0,0,0,0,0,0,0,0,0,0,0,0,0],"id":47,"left_children":[1,3,-1,5,7,9,11,13,-1,15,17,19,21,23,25,-1,-1,-1,-1,-1,-1,-1,-1,-1,-1,-1,-1],"loss_changes":[3.0295815E0,1.6190162E0,0E0,1.8954842E0,1.0536174E0,2.2700648E0,2.7646494E0,1.3626425E0,0E0,2.713645E-1,7.501137E-1,4.4797182E-1,4.514953E0,3.0859356E0,1.5758309E0,0E0,0E0,0E0,0E0,0E0,0E0,0E0,0E0,0E0,0E0,0E0,0E0],"parents":[2147483647,0,0,1,1,3,3,4,4,5,5,6,6,7,7,9,9,10,10,11,11,12,12,13,13,14,14],"right_children":[2,4,-1,6,8,10,12,14,-1,16,18,20,22,24,26,-1,-1,-1,-1,-1,-1,-1,-1,-1,-1,-1,-1],"split_conditions":[4.3028546E2,2.3809524E-1,-7.938582E-2,9.6976204E1,9.895833E-1,2.604299E1,4.2178073E0,7.028973E1,-3.979638E-2,2.1934924E0,2.0754717E-1,7.1430554E-6,8.5903086E-2,6.920212E1,5E0,-4.5868605E-3,5.2203562E-2,-9.684381E-2,-1.473994E-2,5.2321516E-3,8.280614E-2,1.9026771E-2,-8.326761E-2,5.334462E-2,-7.9382695E-2,-2.6380083E-2,8.6307734E-2],"split_indices":[6,2,0,6,2,6,5,6,0,6,2,1,2,6,4,0,0,0,0,0,0,0,0,0,0,0,0],"split_type":[0,0,0,0,0,0,0,0,0,0,0,0,0,0,0,0,0,0,0,0,0,0,0,0,0,0,0],"sum_hessian":[4.8965687E1,4.524093E1,3.7247584E0,3.2014305E1,1.3226621E1,8.131208E0,2.3883099E1,1.2209511E1,1.0171095E0,2.2339199E0,5.8972883E0,4.590179E0,1.929292E1,5.3841944E0,6.825317E0,1.1706259E0,1.0632939E0,3.9297159E0,1.9675726E0,1.060147E0,3.530032E0,1.4257597E1,5.0353227E0,3.525541E0,1.8586533E0,1.0326027E0,5.792714E0],"tree_param":{"num_deleted":"0","num_feature":"13","num_nodes":"27","size_leaf_vector":"1"}},{"base_weights":[-3.142899E-2,6.0412645E-2,-6.4426035E-1,-6.4842984E-2,1.0186995E-1,-5.068723E-3,-8.6989015E-2,7.6895915E-2,3.4511253E-2,-5.176419E-1,1.4248669E-1,-7.107215E-2,2.7924309E-2,-5.4087616E-3,5.4406967E-2],"categories":[],"categories_nodes":[],"categories_segments":[],"categories_sizes":[],"default_left":[0,0,0,0,0,0,0,0,0,0,0,0,0,0,0],"id":48,"left_children":[1,3,5,-1,7,-1,-1,-1,9,11,13,-1,-1,-1,-1],"loss_changes":[2.7917092E0,1.3428832E0,8.2110834E-1,0E0,1.8567758E0,0E0,0E0,0E0,2.4057941E0,1.2160922E0,2.674089E0,0E0,0E0,0E0,0E0],"parents":[2147483647,0,0,1,1,2,2,4,4,8,8,9,9,10,10],"right_children":[2,4,6,-1,8,-1,-1,-1,10,12,14,-1,-1,-1,-1],"split_conditions":[3.6494672E2,9.8864335E-1,4.1599167E-5,-6.4842984E-2,2.604299E1,-5.068723E-3,-8.6989015E-2,7.6895915E-2,7.028973E1,4E0,1.764706E-1,-7.107215E-2,2.7924309E-2,-5.4087616E-3,5.4406967E-2],"split_indices":[6,5,1,0,6,0,0,0,6,0,2,0,0,0,0],"split_type":[0,0,0,0,0,0,0,0,0,0,0,0,0,0,0],"sum_hessian":[4.7909374E1,4.2449173E1,5.4602013E0,1.5365269E0,4.0912647E1,1.8411814E0,3.61902E0,2.7969608E0,3.811569E1,5.613893E0,3.2501793E1,4.6060143E0,1.0078788E0,2.2401571E1,1.0100224E1],"tree_param":{"num_deleted":"0","num_feature":"13","num_nodes":"15","size_leaf_vector":"1"}},{"base_weights":[-3.0517492E-2,4.012121E-2,-7.687723E-2,8.4099434E-2,-6.457451E-2,-2.2629576E-2,3.8612935E-1,8.8771634E-2,-1.1385784E-1,6.357393E-1,-7.609827E-2,-6.312757E-2,1.4627168E-2,8.378466E-2,-3.4237657E-2],"categories":[],"categories_nodes":[],"categories_segments":[],"categories_sizes":[],"default_left":[0,0,0,0,0,0,0,0,0,0,0,0,0,0,0],"id":49,"left_children":[1,3,-1,5,-1,7,9,11,-1,13,-1,-1,-1,-1,-1],"loss_changes":[2.531684E0,1.4031411E0,0E0,1.3918961E0,0E0,4.159962E0,3.7075505E0,1.3598197E0,0E0,2.2225108E0,0E0,0E0,0E0,0E0,0E0],"parents":[2147483647,0,0,1,1,3,3,5,5,6,6,7,7,9,9],"right_children":[2,4,-1,6,-1,8,10,12,-1,14,-1,-1,-1,-1,-1],"split_conditions":[4.3028546E2,9.44399E-2,-7.687723E-2,3.3451965E2,-6.457451E-2,1.3930326E1,1.7910448E-1,9.8864335E-1,-1.1385784E-1,1.2073501E0,-7.609827E-2,-6.312757E-2,1.4627168E-2,8.378466E-2,-3.4237657E-2],"split_indices":[6,1,0,6,0,5,12,5,0,7,0,0,0,0,0],"split_type":[0,0,0,0,0,0,0,0,0,0,0,0,0,0,0],"sum_hessian":[4.6955334E1,4.371791E1,3.2374227E0,4.1908115E1,1.8097951E0,3.164923E1,1.0258886E1,2.9613472E1,2.0357559E0,8.791631E0,1.467255E0,1.4520015E0,2.816147E1,7.4049582E0,1.3866727E0],"tree_param":{"num_deleted":"0","num_feature":"13","num_nodes":"15","size_leaf_vector":"1"}},{"base_weights":[-3.525816E-2,4.74968E-2,-6.220311E-1,-4.4688708E-1,1.00344844E-1,-4.7741327E-3,-8.454283E-2,-7.55712E-2,-9.63621E-5,-6.145769E-2,1.430037E-1,7.413372E-2,7.63066E-2,2.0950235E-2,-4.5078807E-2],"categories":[],"categories_nodes":[],"categories_segments":[],"categories_sizes":[],"default_left":[0,0,0,0,0,0,0,0,0,0,0,0,0,0,0],"id":50,"left_children":[1,3,5,7,9,-1,-1,-1,-1,-1,11,-1,13,-1,-1],"loss_changes":[2.307546E0,1.143315E0,7.126558E-1,5.8367074E-1,1.2711862E0,0E0,0E0,0E0,0E0,0E0,1.436996E0,0E0,2.5367422E0,0E0,0E0],"parents":[2147483647,0,0,1,1,2,2,3,3,4,4,10,10,12,12],"right_children":[2,4,6,8,10,-1,-1,-1,-1,-1,12,-1,14,-1,-1],"split_conditions":[3.6494672E2,1E0,4.1599167E-5,9.700332E1,9.8864335E-1,-4.7741327E-3,-8.454283E-2,-7.55712E-2,-9.63621E-5,-6.145769E-2,2.604299E1,7.413372E-2,2.7142856E0,2.0950235E-2,-4.5078807E-2],"split_indices":[6,8,1,6,5,0,0,0,0,0,6,0,0,0,0],"split_type":[0,0,0,0,0,0,0,0,0,0,0,0,0,0,0],"sum_hessian":[4.591264E1,4.1043205E1,4.8694353E0,3.2436233E0,3.7799583E1,1.703622E0,3.1658132E0,1.5059578E0,1.7376654E0,1.3735418E0,3.642604E1,2.638783E0,3.378726E1,2.745258E1,6.3346777E0],"tree_param":{"num_deleted":"0","num_feature":"13","num_nodes":"15","size_leaf_vector":"1"}},{"base_weights":[-3.6290996E-2,2.703098E-2,-7.429947E-2,-8.4603064E-2,2.9298192E-1,-2.5332528E-1,2.084372E-1,3.861414E-1,-4.0985253E-2,4.731198E-2,-7.888322E-1,4.7847062E-1,-8.018582E-2,-1.5547746E-1,5.500969E-1,-4.4724222E-2,6.737395E-2,2.907382E-3,-1.6667525E-1,6.645341E-2,-5.602179E-2,3.345068E-2,-5.539323E-2,6.910222E-3,8.0485396E-2],"categories":[],"categories_nodes":[],"categories_segments":[],"categories_sizes":[],"default_left":[0,0,0,0,0,0,0,0,0,0,0,0,0,0,0,0,0,0,0,0,0,0,0,0,0],"id":51,"left_children":[1,3,-1,5,7,9,11,13,-1,15,17,19,-1,21,23,-1,-1,-1,-1,-1,-1,-1,-1,-1,-1],"loss_changes":[2.0847368E0,1.3105798E0,0E0,1.5993671E0,1.0113E0,3.3058329E0,3.6514182E0,1.1527823E0,0E0,4.6217957E0,5.33067E0,2.3199773E0,0E0,8.8275564E-1,1.101872E0,0E0,0E0,0E0,0E0,0E0,0E0,0E0,0E0,0E0,0E0],"parents":[2147483647,0,0,1,1,3,3,4,4,5,5,6,6,7,7,9,9,10,10,11,11,13,13,14,14],"right_children":[2,4,-1,6,8,10,12,14,-1,16,18,20,-1,22,24,-1,-1,-1,-1,-1,-1,-1,-1,-1,-1],"split_conditions":[4.3028546E2,2.3809524E-1,-7.429947E-2,3.3451965E2,8.8E1,5.9670157E0,1.7910448E-1,5E0,-4.0985253E-2,4.0418053E0,8.5903086E-2,1.5465232E-2,-8.018582E-2,2E0,7.028973E1,-4.4724222E-2,6.737395E-2,2.907382E-3,-1.6667525E-1,6.645341E-2,-5.602179E-2,3.345068E-2,-5.539323E-2,6.910222E-3,8.0485396E-2],"split_indices":[6,2,0,6,4,5,12,4,0,5,2,1,0,4,6,0,0,0,0,0,0,0,0,0,0],"split_type":[0,0,0,0,0,0,0,0,0,0,0,0,0,0,0,0,0,0,0,0,0,0,0,0,0],"sum_hessian":[4.5137627E1,4.230846E1,2.8291671E0,3.028013E1,1.202833E1,1.9302158E1,1.0977973E1,1.1018448E1,1.0098819E0,1.2945895E1,6.3562636E0,9.077996E0,1.8999765E0,2.5723913E0,8.446056E0,7.394277E0,5.5516176E0,3.7911544E0,2.5651095E0,8.004368E0,1.0736287E0,1.2256662E0,1.3467251E0,3.364656E0,5.081401E0],"tree_param":{"num_deleted":"0","num_feature":"13","num_nodes":"25","size_leaf_vector":"1"}},{"base_weights":[-3.897386E-2,3.7166785E-2,-6.033267E-1,7.783061E-2,-6.000627E-2,-4.0786574E-3,-8.274626E-2,-2.8108345E-2,4.462675E-1,7.699844E-2,-1.0538783E-1,7.127963E-1,-6.907464E-2,7.266318E-2,1.2378511E-3,3.5235193E-3,1.073185E-1],"categories":[],"categories_nodes":[],"categories_segments":[],"categories_sizes":[],"default_left":[0,0,0,0,0,0,0,0,0,0,0,0,0,0,0,0,0],"id":52,"left_children":[1,3,5,7,-1,-1,-1,9,11,13,-1,15,-1,-1,-1,-1,-1],"loss_changes":[1.9531974E0,1.0970097E0,6.470562E-1,1.5342801E0,0E0,0E0,0E0,3.4472628E0,3.1488578E0,1.2189512E0,0E0,1.8164E0,0E0,0E0,0E0,0E0,0E0],"parents":[2147483647,0,0,1,1,2,2,3,3,7,7,8,8,9,9,11,11],"right_children":[2,4,6,8,-1,-1,-1,10,12,14,-1,16,-1,-1,-1,-1,-1],"split_conditions":[3.6494672E2,9.44399E-2,4.1599167E-5,3.3451965E2,-6.000627E-2,-4.0786574E-3,-8.274626E-2,1.3930326E1,1.7910448E-1,7.8125E-2,-1.0538783E-1,5.0251256E-3,-6.907464E-2,7.266318E-2,1.2378511E-3,3.5235193E-3,1.073185E-1],"split_indices":[6,1,1,6,0,0,0,5,12,2,0,12,0,0,0,0,0],"split_type":[0,0,0,0,0,0,0,0,0,0,0,0,0,0,0,0,0],"sum_hessian":[4.3932858E1,3.95333E1,4.399561E0,3.7987072E1,1.5462261E0,1.590263E0,2.809298E0,3.0221113E1,7.765957E0,2.8251251E1,1.9698633E0,6.593471E0,1.1724858E0,1.6290888E0,2.6622162E1,2.6704915E0,3.9229796E0],"tree_param":{"num_deleted":"0","num_feature":"13","num_nodes":"17","size_leaf_vector":"1"}},{"base_weights":[-3.8719554E-2,-1.9594996E-1,2.2097763E-1,-6.95789E-2,-5.88264E-1,-1.1540578E-1,5.564647E-1,8.108214E-2,-5.8125395E-1,-6.560303E-2,-8.5791156E-2,3.3093446E-1,-5.322655E-1,-1.3116057E-1,9.2119664E-2,1.7793483E-1,-7.832241E-2,-3.8291016E-3,-8.092659E-2,4.4162486E-2,-6.234903E-2,-2.2314144E-2,8.295944E-2,-9.7092256E-2,4.4657465E-2,-4.746167E-2,2.334757E-2,4.685416E-2,-2.1869414E-2,-2.711444E-2,1.864583E-2],"categories":[],"categories_nodes":[],"categories_segments":[],"categories_sizes":[],"default_left":[0,0,0,0,0,0,0,0,0,0,0,0,0,0,0,0,0,0,0,0,0,0,0,0,0,0,0,0,0,0,0],"id":53,"left_children":[1,3,5,7,9,11,13,15,17,19,-1,21,23,25,-1,27,-1,-1,-1,-1,-1,29,-1,-1,-1,-1,-1,-1,-1,-1,-1],"loss_changes":[1.8476967E0,1.3499798E0,1.9979358E0,1.7704083E0,8.881495E-1,1.9221939E0,2.315482E0,1.6584499E0,6.1368954E-1,1.2271203E0,0E0,9.254256E-1,2.6816962E0,6.0026354E-1,0E0,2.0772936E0,0E0,0E0,0E0,0E0,0E0,2.5770104E-1,0E0,0E0,0E0,0E0,0E0,0E0,0E0,0E0,0E0],"parents":[2147483647,0,0,1,1,2,2,3,3,4,4,5,5,6,6,7,7,8,8,9,9,11,11,12,12,13,13,15,15,21,21],"right_children":[2,4,6,8,10,12,14,16,18,20,-1,22,24,26,-1,28,-1,-1,-1,-1,-1,30,-1,-1,-1,-1,-1,-1,-1,-1,-1],"split_conditions":[1.764706E-1,1.2195122E-1,2.9328816E0,3.6494672E2,3E0,6.859315E-1,3.7383176E-2,2.6E1,4.1599167E-5,1.0093939E2,-8.5791156E-2,2.9292414E0,4.142857E0,6.747324E-1,9.2119664E-2,6E0,-7.832241E-2,-3.8291016E-3,-8.092659E-2,4.4162486E-2,-6.234903E-2,3E0,8.295944E-2,-9.7092256E-2,4.4657465E-2,-4.746167E-2,2.334757E-2,4.685416E-2,-2.1869414E-2,-2.711444E-2,1.864583E-2],"split_indices":[2,2,5,6,4,7,12,4,1,6,0,5,0,7,0,9,0,0,0,0,0,0,0,0,0,0,0,0,0,0,0],"split_type":[0,0,0,0,0,0,0,0,0,0,0,0,0,0,0,0,0,0,0,0,0,0,0,0,0,0,0,0,0,0,0],"sum_hessian":[4.319042E1,2.7055483E1,1.6134935E1,2.1354265E1,5.7012186E0,8.384269E0,7.750666E0,1.714694E1,4.2073245E0,2.3634357E0,3.3377829E0,4.1485047E0,4.2357645E0,2.9082208E0,4.8424454E0,1.6133211E1,1.01373E0,1.5897055E0,2.617619E0,1.3470778E0,1.0163578E0,2.9874554E0,1.1610492E0,2.930555E0,1.3052092E0,1.3422858E0,1.565935E0,9.206428E0,6.9267836E0,1.2266678E0,1.7607877E0],"tree_param":{"num_deleted":"0","num_feature":"13","num_nodes":"31","size_leaf_vector":"1"}},{"base_weights":[-3.907584E-2,-1.8876763E-1,2.1188912E-1,-7.015719E-2,-5.55047E-1,-1.04643784E-1,5.3179735E-1,4.2386357E-2,-7.055199E-2,-1.740344E-1,-9.411381E-2,3.1521085E-1,-5.078274E-1,-1.2373996E-1,9.021225E-2,1.2691677E-1,-7.510885E-2,-5.643825E-1,4.4296306E-2,-2.2313643E-2,7.978038E-2,-9.381435E-2,4.2549316E-2,-4.397161E-2,2.2239259E-2,3.138884E-2,-3.0966846E-2,-1.3517735E-2,-7.023418E-2,-2.5773922E-2,1.7444614E-2],"categories":[],"categories_nodes":[],"categories_segments":[],"categories_sizes":[],"default_left":[0,0,0,0,0,0,0,0,0,0,0,0,0,0,0,0,0,0,0,0,0,0,0,0,0,0,0,0,0,0,0],"id":54,"left_children":[1,3,5,7,9,11,13,15,-1,17,-1,19,21,23,-1,25,-1,27,-1,29,-1,-1,-1,-1,-1,-1,-1,-1,-1,-1,-1],"loss_changes":[1.6580786E0,1.1561363E0,1.7328752E0,1.5975972E0,8.047757E-1,1.71086E0,2.1513524E0,1.4078183E0,0E0,1.3436108E0,0E0,8.493093E-1,2.4299173E0,5.2569455E-1,0E0,1.6105795E0,0E0,9.577978E-2,0E0,2.2917084E-1,0E0,0E0,0E0,0E0,0E0,0E0,0E0,0E0,0E0,0E0,0E0],"parents":[2147483647,0,0,1,1,2,2,3,3,4,4,5,5,6,6,7,7,9,9,11,11,12,12,13,13,15,15,17,17,19,19],"right_children":[2,4,6,8,10,12,14,16,-1,18,-1,20,22,24,-1,26,-1,28,-1,30,-1,-1,-1,-1,-1,-1,-1,-1,-1,-1,-1],"split_conditions":[1.764706E-1,1.2195122E-1,2.9328816E0,4.3028546E2,4E0,6.859315E-1,3.7383176E-2,2.7E1,-7.055199E-2,3E0,-9.411381E-2,2.9292414E0,4.142857E0,6.747324E-1,9.021225E-2,1.7910448E-1,-7.510885E-2,2E0,4.4296306E-2,3E0,7.978038E-2,-9.381435E-2,4.2549316E-2,-4.397161E-2,2.2239259E-2,3.138884E-2,-3.0966846E-2,-1.3517735E-2,-7.023418E-2,-2.5773922E-2,1.7444614E-2],"split_indices":[2,2,5,6,4,7,12,4,0,3,0,5,0,7,0,12,0,4,0,0,0,0,0,0,0,0,0,0,0,0,0],"split_type":[0,0,0,0,0,0,0,0,0,0,0,0,0,0,0,0,0,0,0,0,0,0,0,0,0,0,0,0,0,0,0],"sum_hessian":[4.207141E1,2.6508095E1,1.5563315E1,2.0923939E1,5.584156E0,8.161159E0,7.402157E0,1.8568192E1,2.355747E0,3.540745E0,2.043411E0,4.1048136E0,4.0563455E0,2.9124663E0,4.4896903E0,1.7539703E1,1.0284892E0,2.2209315E0,1.3198134E0,2.9766874E0,1.1281259E0,2.7727678E0,1.2835776E0,1.3812171E0,1.531249E0,1.2477245E1,5.062457E0,1.0218109E0,1.1991208E0,1.2140923E0,1.7625952E0],"tree_param":{"num_deleted":"0","num_feature":"13","num_nodes":"31","size_leaf_vector":"1"}},{"base_weights":[-4.036096E-2,-1.8288235E-1,2.0324428E-1,-7.072985E-2,-5.3111815E-1,-9.4799265E-2,5.080237E-1,4.5273617E-1,-2.0312394E-1,-1.6688019E-1,-9.056176E-2,3.0046976E-1,-4.8491055E-1,-1.16484E-1,8.832904E-2,7.433053E-2,-1.0995256E-2,-2.4029456E-2,-9.047321E-2,-5.3568393E-1,4.2445384E-2,-2.2276275E-2,7.681764E-2,-9.074285E-2,4.053036E-2,-4.0754166E-2,2.1178907E-2,1.3603421E-2,-6.861523E-2,-1.2805707E-2,-6.6849545E-2,-2.4500066E-2,1.6319916E-2],"categories":[],"categories_nodes":[],"categories_segments":[],"categories_sizes":[],"default_left":[0,0,0,0,0,0,0,0,0,0,0,0,0,0,0,0,0,0,0,0,0,0,0,0,0,0,0,0,0,0,0,0,0],"id":55,"left_children":[1,3,5,7,9,11,13,15,17,19,-1,21,23,25,-1,-1,-1,27,-1,29,-1,31,-1,-1,-1,-1,-1,-1,-1,-1,-1,-1,-1],"loss_changes":[1.500314E0,1.02138E0,1.5041641E0,1.5932511E0,7.2888803E-1,1.5252601E0,1.9969707E0,8.473263E-1,2.2375064E0,1.2079788E0,0E0,7.81126E-1,2.2052865E0,4.6057695E-1,0E0,0E0,0E0,1.7202544E0,0E0,8.824897E-2,0E0,2.0384356E-1,0E0,0E0,0E0,0E0,0E0,0E0,0E0,0E0,0E0,0E0,0E0],"parents":[2147483647,0,0,1,1,2,2,3,3,4,4,5,5,6,6,7,7,8,8,9,9,11,11,12,12,13,13,17,17,19,19,21,21],"right_children":[2,4,6,8,10,12,14,16,18,20,-1,22,24,26,-1,-1,-1,28,-1,30,-1,32,-1,-1,-1,-1,-1,-1,-1,-1,-1,-1,-1],"split_conditions":[1.764706E-1,1.2195122E-1,2.9328816E0,5.9670157E0,4E0,6.859315E-1,3.7383176E-2,9.624127E-1,1.7910448E-1,3E0,-9.056176E-2,2.9292414E0,4.142857E0,6.747324E-1,8.832904E-2,7.433053E-2,-1.0995256E-2,4.3028546E2,-9.047321E-2,2E0,4.2445384E-2,3E0,7.681764E-2,-9.074285E-2,4.053036E-2,-4.0754166E-2,2.1178907E-2,1.3603421E-2,-6.861523E-2,-1.2805707E-2,-6.6849545E-2,-2.4500066E-2,1.6319916E-2],"split_indices":[2,2,5,5,4,7,12,7,12,3,0,5,0,7,0,0,0,6,0,4,0,0,0,0,0,0,0,0,0,0,0,0,0],"split_type":[0,0,0,0,0,0,0,0,0,0,0,0,0,0,0,0,0,0,0,0,0,0,0,0,0,0,0,0,0,0,0,0,0],"sum_hessian":[4.1142513E1,2.6113855E1,1.5028659E1,2.066244E1,5.4514165E0,7.9466214E0,7.0820374E0,3.6825576E0,1.6979881E1,3.4964142E0,1.9550025E0,4.061355E0,3.8852665E0,2.9170935E0,4.164944E0,2.2168176E0,1.46574E0,1.43508835E1,2.628998E0,2.211348E0,1.2850661E0,2.9665952E0,1.09476E0,2.6216354E0,1.2636312E0,1.4181998E0,1.4988936E0,1.2196912E1,2.1539717E0,1.0261317E0,1.1852162E0,1.2021202E0,1.7644749E0],"tree_param":{"num_deleted":"0","num_feature":"13","num_nodes":"33","size_leaf_vector":"1"}},{"base_weights":[-4.0302698E-2,-1.7650028E-1,1.9501457E-1,-6.922217E-2,-5.083678E-1,-8.579491E-2,4.8514932E-1,4.3223912E-1,-1.9522707E-1,-8.419339E-2,-1.3416694E-1,2.8663784E-1,-4.6337122E-1,-1.0943192E-1,8.646669E-2,7.188063E-2,-1.033433E-2,-2.5827536E-2,-8.773296E-2,6.415851E-2,-8.200335E-2,-2.2202995E-2,7.404746E-2,-8.7850034E-2,3.8597554E-2,2.6139056E-2,-3.384932E-2,-5.557508E-2,1.8204441E-2,-2.3289455E-2,1.5267064E-2],"categories":[],"categories_nodes":[],"categories_segments":[],"categories_sizes":[],"default_left":[0,0,0,0,0,0,0,0,0,0,0,0,0,0,0,0,0,0,0,0,0,0,0,0,0,0,0,0,0,0,0],"id":56,"left_children":[1,3,5,7,9,11,13,15,17,-1,19,21,23,25,-1,-1,-1,27,-1,-1,-1,29,-1,-1,-1,-1,-1,-1,-1,-1,-1],"loss_changes":[1.350523E0,9.095172E-1,1.3068402E0,1.4246073E0,6.76481E-1,1.3620273E0,1.8520445E0,7.757721E-1,2.015606E0,0E0,2.744984E0,7.1983784E-1,2.0042925E0,4.2161626E-1,0E0,0E0,0E0,1.7712494E0,0E0,0E0,0E0,1.8135418E-1,0E0,0E0,0E0,0E0,0E0,0E0,0E0,0E0,0E0],"parents":[2147483647,0,0,1,1,2,2,3,3,4,4,5,5,6,6,7,7,8,8,10,10,11,11,12,12,13,13,17,17,21,21],"right_children":[2,4,6,8,10,12,14,16,18,-1,20,22,24,26,-1,-1,-1,28,-1,-1,-1,30,-1,-1,-1,-1,-1,-1,-1,-1,-1],"split_conditions":[1.764706E-1,1.2195122E-1,2.9328816E0,5.9670157E0,4.0418053E0,6.859315E-1,3.7383176E-2,9.624127E-1,1.7910448E-1,-8.419339E-2,4.21775E0,2.9292414E0,4.142857E0,6.6657835E-1,8.646669E-2,7.188063E-2,-1.033433E-2,3.1805054E2,-8.773296E-2,6.415851E-2,-8.200335E-2,3E0,7.404746E-2,-8.7850034E-2,3.8597554E-2,2.6139056E-2,-3.384932E-2,-5.557508E-2,1.8204441E-2,-2.3289455E-2,1.5267064E-2],"split_indices":[2,2,5,5,5,7,12,7,12,0,5,5,0,7,0,0,0,6,0,0,0,0,0,0,0,0,0,0,0,0,0],"split_type":[0,0,0,0,0,0,0,0,0,0,0,0,0,0,0,0,0,0,0,0,0,0,0,0,0,0,0,0,0,0,0],"sum_hessian":[4.0064507E1,2.553515E1,1.4529358E1,2.0210554E1,5.3245964E0,7.7412314E0,6.7881265E0,3.5705426E0,1.664001E1,2.1542902E0,3.1703062E0,4.01841E0,3.7228215E0,2.9219816E0,3.8661447E0,2.1031404E0,1.4674021E0,1.4161004E1,2.4790077E0,1.5179667E0,1.6523396E0,2.957129E0,1.0612812E0,2.4775584E0,1.2452631E0,1.061845E0,1.8601367E0,3.518316E0,1.0642688E1,1.1907274E0,1.7664016E0],"tree_param":{"num_deleted":"0","num_feature":"13","num_nodes":"31","size_leaf_vector":"1"}},{"base_weights":[-3.86453E-2,2.8237762E-2,-5.5054456E-1,-6.0801953E-2,6.9790855E-2,-1.7122148E-3,-7.83702E-2,1.1122734E-2,7.568457E-2,1.1310818E-1,-3.9062956E-1,5.310095E-2,-8.302814E-3,-8.234503E-2,-3.6295713E-3],"categories":[],"categories_nodes":[],"categories_segments":[],"categories_sizes":[],"default_left":[0,0,0,0,0,0,0,0,0,0,0,0,0,0,0],"id":57,"left_children":[1,3,5,-1,7,-1,-1,9,-1,11,13,-1,-1,-1,-1],"loss_changes":[1.3925921E0,1.0080706E0,5.7070446E-1,0E0,1.4097E0,0E0,0E0,1.4138632E0,0E0,2.292935E0,1.0424991E0,0E0,0E0,0E0,0E0],"parents":[2147483647,0,0,1,1,2,2,4,4,7,7,9,9,10,10],"right_children":[2,4,6,-1,8,-1,-1,10,-1,12,14,-1,-1,-1,-1],"split_conditions":[3.6494672E2,9.8864335E-1,4.1599167E-5,-6.0801953E-2,4.142857E0,-1.7122148E-3,-7.83702E-2,1.5465232E-2,7.568457E-2,6.6657835E-1,3.8954165E0,5.310095E-2,-8.302814E-3,-8.234503E-2,-3.6295713E-3],"split_indices":[6,5,1,0,0,0,0,1,0,7,5,0,0,0,0],"split_type":[0,0,0,0,0,0,0,0,0,0,0,0,0,0,0],"sum_hessian":[3.922053E1,3.552393E1,3.696602E0,1.3420607E0,3.418187E1,1.4508206E0,2.2457814E0,3.242893E1,1.7529414E0,2.6436455E1,5.992472E0,7.898988E0,1.8537468E1,2.101518E0,3.8909543E0],"tree_param":{"num_deleted":"0","num_feature":"13","num_nodes":"15","size_leaf_vector":"1"}},{"base_weights":[-3.8017094E-2,1.2737443E-2,-6.677577E-2,5.3812105E-2,-5.9042353E-2,-5.9193827E-2,9.4177045E-2,4.0261842E-2,7.3385336E-2,